tree
version=v4
num_class=1
num_tree_per_iteration=1
label_index=0
max_feature_idx=48
objective=binary sigmoid:1
feature_names=bfacil3 sex precare gestrec10 rf_pdiab rf_gdiab rf_phype rf_ghype rf_ehype rf_ppterm rf_inftr rf_fedrg rf_artec ld_indl ld_augm me_pres dmeth_rec apgar5 apgar10 ab_aven1 ab_aven6 ab_nicu ab_surf ab_anti ab_seiz ca_anen ca_mnsb ca_cchd ca_cdh ca_omph ca_gast ca_limb ca_cleft ca_clpal ca_hypo ca_disor meduc mracehisp feduc fracehisp pay_rec wic year dbwt pwgt_r wtgain bmi mage_c fagecomb
feature_infos=-1:0:1 -1:1:0 -1:2:3:4:1:5:6:7:0:8:9:10 -1:6:5:7:4:8:9:3:2:1:10 -1:0:1 -1:0:1 -1:0:1 -1:0:1 -1:0:1 -1:0:1 -1:0:1 -1:0:1 -1:1:0 -1:0:1 -1:0:1 -1:0:1:2 -1:0:1 -1:0:1 -1:1:0 -1:0:1 -1:0:1 -1:0:1 -1:0:1 -1:0:1 -1:0:1 -1:0:1 -1:0:1 -1:0:1 -1:0:1 -1:0:1 -1:0:1 -1:0:1 -1:0:1 -1:0:1 -1:0:1 -1:0:2:1 -1:2:5:3:6:1:4:0:7:8 -1:0:6:1:3:5:7:2 -1:2:5:3:1:6:4:0:7 -1:0:6:7:1:3:5:8:2 -1:1:0:2:3 -1:0:1 [2016:2024] [227:7425] [75:375] [0:98] [13:68.875] [12:50] [12:86]
tree_sizes=9826 9922 9935 9931 9891 9941 9885 9922 10058 9984 9854 9912 9976 10007 9968 9989 9912 9944 9942 9899 9924 9986 9948 9959 9928 9968 9909 9922 9929 9921 9956 10006 9917 9985 10044 9985 9879 9963 9780 10106 10055 9987 9941 9945 10003 10022 9997 10128 9998 9975 9981 10049 9906 9997 9930 9821 9896 9897 9998 9909 9989 9929 10015 10132 10030 10078 9940 9907 9959 10026 10079 10013 10063 9960 10082 10087 10160 10022 10022 10085 10037 10046 10108 9954 10067 10155 10120 9983 9979 10041 10122 10155 10019 10104 10114 10112 10134 10154 10166 10020 10118 10049 10142 10085 10173 10156 10051 10088 10095 10161 10151 9939 10109 10102 10095 10053 10021 10167 10211 10159 10221 10265 10269 10172 10224 10203 10104 10205 9997 10135 10092 10194 10182 10213 10057 10146 10198 10165 10188 10230 10142 10226 10194 10106 10216 10108 10125 10181 10215 10086 10253 10129 10225 10175 10130 10138 10202 10288 10238 10253 10248 10312 10078 10091 10094

Tree=0
num_leaves=93
num_cat=28
split_feature=21 47 27 12 43 47 47 3 43 27 3 45 43 43 7 43 43 47 47 12 47 3 46 43 43 16 19 36 45 46 19 19 11 48 44 37 37 43 4 43 43 45 3 46 43 12 43 45 45 43 43 46 36 46 3 44 48 46 47 46 47 46 43 45 12 12 47 45 47 48 43 43 44 44 48 45 45 46 47 23 7 44 48 3 46 44 44 44 45 45 48 36
split_gain=13570.5 12408.6 2345.98 1407.37 1134.39 980.421 815.154 443.442 258.756 247.667 221.422 205.657 181.515 138.63 116.599 107.363 103.737 82.9845 77.6403 60.8488 77.734 57.3293 54.3864 49.4332 47.7225 45.3601 44.2091 39.2853 37.8807 35.8136 35.4107 31.9689 31.0173 29.6862 28.4796 28.4151 26.1273 25.3968 24.6534 24.3025 21.3813 20.4518 20.1534 19.6438 18.4465 16.5879 15.9554 23.7684 15.4425 14.6675 13.0714 12.9122 12.8547 12.7426 12.7357 12.475 11.9431 59.39 11.7486 11.645 11.5184 13.0345 11.2797 10.8915 10.8273 10.265 9.91448 9.70748 15.8643 9.31803 9.01061 10.0479 8.95022 10.0944 8.80728 13.0275 8.57578 8.37959 8.28833 8.16629 7.72281 13.3799 10.4592 7.67402 7.55804 7.54413 7.8388 7.41964 10.6533 7.1301 7.11754 6.99824
threshold=0 37.500000000000007 1 2 2100.5000000000005 34.500000000000007 38.500000000000007 3 3570.5000000000005 4 5 65.500000000000014 2700.5000000000005 4272.5000000000009 6 2100.5000000000005 3470.5000000000005 34.500000000000007 36.500000000000007 7 41.500000000000007 8 47.546875000000007 4394.5000000000009 3570.5000000000005 9 10 11 46.500000000000007 18.546875000000004 12 13 14 53.500000000000007 104.50000000000001 15 16 2210.5000000000005 17 2210.5000000000005 3130.5000000000005 58.500000000000007 18 49.953125000000007 3850.5000000000005 19 2849.5000000000005 44.500000000000007 58.500000000000007 4196.5000000000009 3458.5000000000005 36.640625000000007 20 19.546875000000004 21 204.50000000000003 23.500000000000004 19.046875000000004 34.500000000000007 19.750000000000004 41.500000000000007 21.648437500000004 3410.5000000000005 58.500000000000007 22 23 40.500000000000007 29.500000000000004 22.500000000000004 37.500000000000007 3160.5000000000005 2155.5000000000005 220.50000000000003 124.50000000000001 25.500000000000004 40.500000000000007 14.500000000000002 29.953125000000004 29.500000000000004 24 25 278.50000000000006 22.500000000000004 26 29.750000000000004 133.50000000000003 189.50000000000003 123.50000000000001 28.500000000000004 58.500000000000007 44.500000000000007 27
decision_type=9 2 9 9 10 2 2 9 8 9 9 10 10 10 9 8 8 2 2 9 2 9 10 10 8 9 9 1 10 8 9 9 9 10 10 9 9 10 9 10 10 10 9 10 8 9 10 10 10 8 10 10 1 8 9 10 10 8 2 8 2 10 10 8 9 9 2 8 2 10 10 10 8 10 8 10 8 8 2 9 9 10 8 9 8 8 10 10 8 10 10 1
left_child=1 2 -1 -3 -5 7 9 8 14 -2 16 13 17 -6 70 63 19 35 26 -8 46 24 23 29 28 49 54 44 38 -17 -20 -23 -31 41 -22 37 59 74 -9 -16 58 64 50 45 60 -41 47 51 -36 -10 85 53 84 -21 78 67 62 -58 79 -19 -12 -62 -47 -7 -34 -40 -29 68 -33 -63 71 -4 73 -48 -11 -76 -60 83 -14 -28 -67 82 -82 87 -44 -32 -87 -39 -89 -61 -84 -68
right_child=6 3 5 4 11 15 10 21 25 12 27 -13 18 -15 39 22 -18 36 30 20 34 31 -24 -25 -26 -27 40 66 -30 32 42 55 33 -35 48 -37 -38 77 65 43 -42 -43 52 -45 -46 56 72 -49 -50 -51 -52 -53 -54 -55 -56 -57 57 -59 76 89 61 69 -64 -65 -66 80 91 -69 -70 -71 -72 -73 -74 -75 75 -77 -78 -79 -80 -81 81 -83 90 -85 -86 86 -88 88 -90 -91 -92 -93
leaf_value=-6.9033198829534959 -7.3584122851340039 -7.4969038624359676 -7.5432011410690745 -7.2798234137818874 -6.7756118760591946 -7.4442281317039924 -7.5421622334189511 -7.5500193080202411 -7.4652749669580221 -7.5450115182978061 -7.5182064842976715 -7.5148125348171018 -7.5414543602600688 -7.4865872880702584 -7.4868610010315759 -7.5416702169821237 -7.5257916676528964 -7.5433990723568902 -7.4895331237079645 -7.5416702169821237 -7.5434998531643656 -7.5420413101804096 -7.5416702169821237 -7.5385748640341541 -7.5343945138132629 -7.5424397790981876 -7.5264591099059519 -7.5529550096085396 -7.532133550318985 -7.5219389627075133 -7.5450470070645297 -7.5416702169821237 -7.5352690369664854 -7.5416702169821237 -7.3831268200320146 -7.5581409140649107 -7.5464501535884256 -7.5468959940426528 -7.5447218851187179 -7.5416702169821237 -7.5657302001922737 -7.5172180785390257 -7.5476510098430465 -7.5416702169821237 -7.5463573044126866 -7.4405258824928993 -7.5403320151165047 -7.5431364404514998 -7.5416702169821237 -7.5432770029423564 -7.5516964540249729 -7.5376061516599391 -7.5584718764596435 -7.4298021619742514 -7.5493538516586218 -7.5416702169821237 -7.5313393937808613 -7.3476873894665662 -7.5303880220365436 -7.4872509153974587 -7.545400506149055 -7.5384830899287607 -7.535075324274672 -7.540630628641753 -7.2869774905023501 -7.5093271668253836 -7.5283580592508512 -7.5295400077251786 -7.4829091547438891 -7.4524934457364918 -7.5416702169821237 -7.478778506325547 -7.5416702169821237 -7.4879673774699933 -7.5044264286677729 -7.5522219693008967 -7.5530586139630724 -7.5547360261053793 -7.5086340725587366 -7.5614160621425297 -7.5230423466360801 -7.5424478003946831 -7.4620441327653584 -7.5498378321407102 -7.5214597003663677 -7.5138680108415814 -7.5416804235520214 -7.5200210691225751 -7.5428458906181861 -7.5447169408652002 -7.5406626916906241 -7.5486084453548843
leaf_weight=2.0752778919413686 0.50928040198050439 4.5172800691798329 1.7371708196587841 12.904773224378003 25.876319945789881 15.327697259606795 5.5745271055493504 2.4197443448938429 10.549152634572236 6.7059669164009419 25.273238678928465 0.70748109952546556 12.461206422653051 1.0037222490645934 7.9041802242863914 0.61950966692529519 23.893783021951094 2.8463527981657526 4.4044010622892529 0.92370004230179326 0.73927800287492829 52.107705312315375 0.89243308734148641 1.0000126103404898 18.708238034043461 14.916987258009613 2.0932961371727288 54.554477025056258 13.583637110888956 1.4764362121932209 12.383304009446872 4.7992126122117069 0.48066318896599114 0.32962789805605908 16.068565107649196 116.19595385831781 17.760690314229578 32.029020743910223 0.98941364255733788 0.61632997659035027 2499.9488539025187 1.4843854380305845 16.838050168706108 0.69105269946157832 7.3334258091635993 16.09029299160466 4.1876521711237755 1.7223322647623707 0.3799729950260361 1.7546591165009893 22.980681947432458 1.7127931937575329 105.39931532600895 13.904785834718496 46.747807304374874 8.2089005480520409 2.1839173117186865 43.394823846174404 12.794543959433211 33.200736632337794 1.138859088299794 1.8839665234554557 2.0795174790546289 1.3810455021448422 31.711051710415632 16.238148592179641 22.463982268003747 13.841721976408733 18.186238870723173 5.0138417098205537 3.6725423368625352 7.4357058482710272 3.8437156665604553 24.112651706673205 21.231852263212208 3.2591825933195642 66.484145213384181 50.267724505160004 10.421435072785242 842.23001653980464 6.4701398832257828 1.5686472319066513 71.924065428087488 44.000024906592444 11.399189850781111 26.038484152872115 10.404476724332197 30.908709849230945 29.791578644886613 0.98835374577902158 1.3874048828147341 13.049449134618042
leaf_count=3916 961 8524 3278 24351 48828 28923 10519 4566 19906 12654 47690 1335 23514 1894 14915 1169 45087 5371 8311 1743 1395 98326 1684 1887 35302 28148 3950 102943 25632 2786 23367 9056 907 622 30321 219259 33514 60438 1867 1163 4717344 2801 31773 1304 13838 30362 7902 3250 717 3311 43364 3232 198886 26238 88212 15490 4121 81885 24143 62649 2149 3555 3924 2606 59838 30641 42389 26119 34317 9461 6930 14031 7253 45500 40064 6150 125454 94854 19665 1589268 12209 2960 135719 83027 21510 49134 19633 58324 56216 1865 2618 24624
internal_value=-7.542 -7.39163 -7.44601 -6.96125 -6.91227 -7.45601 -7.55764 -7.47579 -7.43106 -7.5606 -7.50518 -6.80184 -7.56083 -6.79002 -7.39782 -7.34651 -7.47582 -7.54211 -7.56279 -7.45305 -7.44597 -7.50573 -7.31601 -7.31125 -7.49259 -7.50691 -7.56381 -7.53398 -7.48227 -7.30628 -7.54564 -7.52792 -7.30291 -7.29714 -7.39278 -7.54763 -7.51075 -7.54114 -7.47637 -7.38368 -7.56427 -7.29478 -7.54799 -7.37569 -7.5146 -7.37416 -7.47509 -7.45039 -7.38652 -7.47453 -7.53609 -7.44194 -7.55396 -7.43503 -7.54131 -7.51002 -7.37281 -7.35453 -7.56022 -7.50288 -7.50041 -7.47401 -7.44736 -7.44973 -7.28912 -7.47417 -7.54517 -7.50359 -7.49295 -7.46439 -7.49905 -7.4883 -7.49897 -7.49411 -7.51882 -7.51184 -7.54885 -7.54523 -7.52806 -7.56124 -7.47323 -7.46825 -7.46669 -7.54151 -7.5374 -7.52725 -7.52122 -7.53689 -7.53071 -7.48937 -7.46324 -7.53444
internal_weight=4765.75 445.247 400.238 45.0096 40.4923 398.162 4320.5 343.46 113.026 4092.72 227.775 27.5875 4092.22 26.88 85.8055 54.7029 97.0638 389.186 3703.03 73.17 67.5954 230.433 37.9941 37.1017 133.289 27.2208 3493.18 130.711 114.581 36.1017 209.848 97.1438 35.4822 34.0057 17.1878 334.39 54.7961 218.194 100.998 72.9601 3423.55 33.6761 205.444 65.0559 40.6433 64.3649 50.4076 18.2636 16.4485 12.3038 71.8069 16.5413 133.637 14.8285 69.6304 45.0361 63.7486 45.5787 923.602 37.0354 33.3099 8.03667 18.1698 16.7087 32.1917 98.5778 90.0679 36.8272 22.9855 6.89781 12.8454 9.17288 32.144 28.3003 31.197 24.491 79.2787 186.997 22.8826 844.323 97.5884 81.3503 79.7816 136.729 28.2372 48.8263 36.443 92.7293 60.7003 34.1891 73.3115 35.5134
internal_count=8992851 840171 755239 84932 76408 751323 8152680 648100 213278 7722874 429806 52057 7721913 50722 161913 103223 183157 734385 6987528 138070 127551 434822 71694 70010 251514 51365 6591550 246649 216212 68123 395978 183308 66954 64168 32433 630986 103399 411727 190580 137674 6460159 63546 387667 122759 76693 121455 95118 34463 31038 23217 135498 31213 252169 27981 131391 84982 120292 86006 1742815 69885 62855 15165 34286 31529 60745 186014 169956 69492 43373 13016 24239 17309 60655 53402 58868 46214 149597 352859 43179 1593218 184147 153506 150546 258005 53283 92134 68767 174978 114540 64514 138337 67013
cat_boundaries=0 1 2 3 4 5 6 7 8 9 10 11 12 13 14 15 16 17 18 19 20 21 22 23 24 25 26 27 28
cat_threshold=2 2 2 96 2 54 2 2 656 1 2 27 2 1 1 69 225 2 60 2 7 48 1 1 2 2 48 292
is_linear=0
shrinkage=1


Tree=1
num_leaves=93
num_cat=32
split_feature=21 47 35 27 47 35 47 3 26 10 27 43 43 43 12 7 47 47 47 43 46 19 3 43 12 43 16 43 45 43 3 16 45 20 19 19 12 45 48 46 46 48 37 37 45 46 4 43 43 3 43 43 45 46 4 45 15 36 47 48 43 19 44 36 47 46 45 45 46 48 43 12 46 46 48 45 48 48 46 43 48 48 46 48 44 45 43 48 45 3 43 2
split_gain=11315.5 5728.98 1545.54 1172.94 816.513 777.936 718.173 390.129 378.235 371.401 216.725 191.401 176.377 163.355 150.794 83.9979 78.3 71.6246 65.2368 64.8091 52.4917 57.4159 51.044 48.224 45.8244 43.6684 42.5243 42.3532 38.2295 37.0529 35.5991 35.2045 34.9437 33.8133 32.8737 30.9028 30.5624 27.2266 26.307 25.077 23.9516 47.9371 23.2514 22.7255 22.548 22.2819 22.223 22.1636 19.246 18.1353 17.1822 19.1048 43.6897 17.0989 15.4601 13.9638 12.9823 12.2276 10.9566 16.8276 10.7507 10.7207 10.4613 10.413 10.2652 9.77417 12.9131 9.75269 9.7442 9.69551 9.65772 9.46048 8.7571 8.5404 8.20058 8.05305 9.00948 7.79419 7.65797 7.53472 7.42212 7.35585 7.26203 7.07067 6.91654 6.91118 7.24212 6.77884 10.6587 6.34746 6.1938 6.17128
threshold=0 35.500000000000007 1 2 40.500000000000007 3 38.500000000000007 4 5 6 7 2863.5000000000005 3600.5000000000005 2700.5000000000005 8 9 34.500000000000007 36.500000000000007 41.500000000000007 1080.5000000000002 47.250000000000007 10 11 4253.5000000000009 12 3570.5000000000005 13 3260.5000000000005 60.500000000000007 3470.5000000000005 14 15 47.500000000000007 16 17 18 19 31.500000000000004 53.500000000000007 52.640625000000007 18.546875000000004 23.500000000000004 20 21 47.500000000000007 18.851562500000004 22 2210.5000000000005 3130.5000000000005 23 1811.0000000000002 3880.5000000000005 91.500000000000014 44.953125000000007 24 32.500000000000007 25 26 28.500000000000004 24.500000000000004 3458.5000000000005 27 127.50000000000001 28 31.500000000000004 37.953125000000007 32.500000000000007 53.500000000000007 19.750000000000004 29.500000000000004 3890.5000000000005 29 23.953125000000004 39.953125000000007 23.500000000000004 29.500000000000004 23.500000000000004 55.500000000000007 30.046875000000004 4210.5000000000009 49.500000000000007 30.500000000000004 29.953125000000004 19.500000000000004 159.50000000000003 29.500000000000004 2585.5000000000005 25.500000000000004 40.500000000000007 30 2640.5000000000005 31
decision_type=9 2 9 9 2 9 2 9 9 9 9 8 8 10 9 9 2 2 2 8 10 9 9 8 9 8 9 10 10 8 9 9 10 9 9 9 9 8 10 8 8 8 9 9 10 8 9 10 10 9 8 10 8 10 9 10 9 1 2 10 10 9 8 1 2 10 10 8 8 8 8 9 8 10 10 8 8 10 8 8 10 8 8 8 10 8 10 8 10 9 10 9
left_child=1 3 -2 -1 14 7 10 12 -7 -6 -4 24 15 16 -3 81 42 34 30 -16 21 38 25 28 -8 32 27 39 -23 36 70 79 46 75 56 -19 -20 72 50 54 -28 -42 47 68 45 -26 -9 87 64 60 55 52 -52 -43 71 -21 -15 91 74 -60 -37 62 -48 -51 -36 66 -64 -61 -18 -47 -13 -17 -38 77 -35 78 -77 -71 -24 -14 -31 -5 84 -63 -49 86 -86 -12 -89 -58 -70 -32
right_child=2 4 6 5 9 8 11 22 -10 -11 13 18 31 17 19 26 43 35 29 20 -22 23 33 -25 44 -27 40 -29 -30 80 57 -33 -34 58 48 49 37 -39 -40 -41 41 53 -44 -45 -46 69 61 82 -50 63 51 -53 -54 -55 -56 -57 89 -59 59 67 -62 83 65 -65 -66 -67 -68 -69 90 73 -72 -73 -74 -75 -76 76 -78 -79 -80 -81 -82 -83 -84 -85 85 -87 -88 88 -90 -91 -92 -93
leaf_value=0.41741311073469189 0.47921998799007309 0.030080657499529772 0.16837789580904353 0.0058520172422029653 0.48895661269890867 0.48716171034794414 -0.0070626750927073861 -0.0091308444455618677 -0.0052985892107970112 0.05719313479390041 -0.0032761462806184401 0.031949938649704038 0.066176661733673453 0.030451619314326127 0.050912096317949317 -8.1084730663862935e-06 -0.0017069259924437272 0.046938789241073364 -0.0067530613488252077 0.074722833766981217 0.024761779545881688 0.33659624114867487 0.017434597796080583 0.0055088135536774654 -0.0039596706276668614 0.0042087098697709434 0.014881257752279017 0.024981815036889891 0.010590830320456527 0.0010707177495487671 -0.0042450160410953302 0 0.0048881030161448341 0.029725269560181889 -0.020759113375738276 0.012277913403206706 0.022215964509257814 0.016990994510386215 0.0038912300381055897 -0.0038708134120496434 0.03389289530219456 0.17258575818359223 -0.016733082643014912 -0.0047132972821277881 0.00063716280739301771 0 0.019154115941679446 -0.0040402120342433257 -0.024156341635417584 0.0028286576322248103 0.22503334141373585 0.053244641825942733 0.023280973676334901 0 -0.0015493335722505772 -0.0046504599182167457 0.005171792178576334 -0.0097250695791785569 -0.0071682853765193191 0.0688862220895817 -0.009867937261897183 -0.00083657950871259565 0.065773660140824322 -0.016865197276253359 -0.013064021756374462 0.011451665070670048 0.021396306767632059 -0.0030343584755255157 0.052743140348108571 0.1075904116034946 -0.0046510378563894318 0.11389571345129207 0.10652629896634087 0.0080501221855641264 -0.0048792316975064965 0.019868138738185825 -0.015050026141028126 0 -0.0048596168024861589 0 0.037012954180954696 0.051332615069549371 -0.013935685431734254 0.078853277661963275 0.038665142460290097 -0.0043715658838693354 -0.0021598054699391942 0.032070093001367123 -0.010465136694262901 -0.011160730985590294 0.010210201422203575 0.018844564626066439
leaf_weight=3.6037374683655798 0.68942173034884036 4.3303084064391442 0.59757781005464494 6.374020652845501 22.369435979635455 0.77637957828119308 3.3327655904577114 2.6960906813619658 1.5172111251740719 3.209857031702998 6.6772829771507558 47.159220057190396 10.95969627110753 4.2748973179841414 4.1805834562983355 0.40586922329384834 2.8403832603944457 4.6376288808532991 3.2222759816213511 4.1227903761900953 1.9865101882605802 25.319136045407511 28.53837221179856 0.61095188721083005 1.1912091966951255 19.996304438041989 2.1432730742963022 11.055302461900281 0.67830526537727465 17.756270666606728 12.367010542249773 15.169526410230901 13.521001282264477 6.3507814361946684 669.49436633707955 49.505302954290528 4.5681534075411134 8.1200913642533106 0.86508383741602202 1.170731333317234 5.1683793474221593 40.772707686002832 114.27006887632888 17.671340487140696 2.4396566135692401 0.85867067030630906 18.350679344730452 118.64189137949143 2440.3480757850339 28.362484583165497 44.103433479496744 4.2833409063168792 2.171697820944245 0.6110118746291836 0.68500245269388571 1.3547578088473526 21.166308725893032 65.389491707319394 2.0401266376138656 10.824638261867218 22.750614428892732 0.55211772507754986 39.317184692656156 103.62681387981866 236.95622818748234 7.7165647701476692 13.888834996963849 0.98569594614673484 29.389242844772525 32.833431863924488 4.9313998870784408 29.166071156563707 11.868672978540415 1.8184507563128125 8.6321170408045855 3.2333763993810889 26.760392419295385 0.7183426403789771 17.038963797152974 1.7789675335516228 2.5227102714707135 8.0845052495715208 49.60385739710182 33.18757810263196 5.7619115679990518 8.3586021314840746 4.0462571440148167 22.003627275349576 3.2223870654706834 44.147418463253416 6.6309796636924139 13.334860872768331
leaf_count=3595 1298 7737 939 11578 23092 1346 6288 5026 2696 5209 12642 86155 19002 8030 6617 752 5369 8307 6052 6516 2625 31368 52827 1045 2216 37043 3858 17976 1086 33012 22967 28226 25093 11792 1288368 92111 8019 14226 1065 1972 8955 65406 219202 33505 4502 1504 32211 223826 4716897 53270 52184 5623 2638 1035 1107 2156 39345 124119 3694 19507 43362 1020 68710 198851 454205 13716 24371 1834 52608 57064 9159 47327 20362 3311 15816 6085 49937 1240 31655 3336 4678 14458 94831 58248 10731 15820 7558 40004 6145 83947 11869 24766
internal_value=-0.00031322 0.126729 -0.0157587 0.0719324 0.297557 0.0639468 -0.0163516 0.0578073 0.372391 0.45191 -0.0192192 0.0321438 0.0961526 -0.0194396 0.236607 0.11982 -0.00167479 -0.0213387 0.0186973 0.244531 0.250833 0.254529 0.0313029 0.326086 0.0840145 0.0427346 0.130247 0.0887751 0.331304 0.0462276 0.00824447 0.0316346 0.0514596 0.0116416 -0.022339 -0.00479679 0.0657094 0.075189 0.199313 0.104921 0.155581 0.159938 -0.00711247 0.0282808 0.0918356 0.0967934 0.0564159 -0.00099163 -0.022746 -0.00701959 0.201621 0.210433 0.218712 0.170532 0.109421 0.0607066 -0.00241432 -0.00346829 0.0368571 0.0528055 0.00440858 0.0583701 0.0464337 -0.012693 -0.0188352 0.0525796 0.0569771 0.0629936 0.0354052 0.100464 0.0239537 0.112197 0.0935071 0.102524 0.0126857 0.00178962 -0.00883676 0.105773 0.0091816 0.0597248 0.0119499 0.0380719 -0.00498737 0.0773003 -0.00131811 0.0132059 0.0256477 0.0194825 0.0254798 -0.00656651 0.0472144 0.00992416
internal_weight=4762.77 512.659 4250.11 393.073 119.586 389.469 4249.42 387.176 2.29359 25.5793 4014.99 234.433 133.545 4014.39 94.0069 105.637 389.118 3625.27 191.24 89.6766 85.496 83.5095 253.631 26.6084 43.1925 149.226 91.1783 42.483 25.9974 48.0582 143.182 27.9082 129.23 104.404 3416.39 208.883 27.7792 24.5569 56.9011 31.4277 48.6954 46.5521 332.586 56.5319 39.8598 37.4201 115.709 218.316 3346.8 204.245 56.036 50.5585 46.2751 41.3837 30.2569 5.47755 69.5886 91.0914 28.8334 13.8505 72.2559 113.013 79.2733 131.989 906.451 60.9226 53.206 11.8103 38.8606 36.2289 52.0906 29.5719 16.4368 35.3702 14.9829 75.5711 29.9938 33.5518 45.5773 12.7387 20.279 14.4585 186.413 33.7397 136.809 18.1668 9.80817 31.9033 25.226 65.3137 36.0202 25.7019
internal_count=8992851 840171 8152680 691210 148961 687615 8151382 683573 4042 28301 7721742 429640 224988 7720803 120660 174424 734110 6986693 353515 112923 106306 103681 458585 33499 76125 265438 148388 69134 32454 86349 267166 50564 228395 193147 6590792 395901 48659 42607 70182 51158 79254 75396 630759 103351 69837 65335 203302 411557 6459470 387594 69117 60445 54822 66441 49186 8672 131322 171852 52643 25035 135473 198276 139008 252121 1742573 106797 93081 21341 69846 63119 95314 48079 28381 61615 27608 140504 56022 58304 84482 22338 37690 26036 352766 59268 257935 34109 18289 58791 46149 123292 64477 47733
cat_boundaries=0 1 2 3 4 5 6 7 8 9 10 11 12 13 14 15 16 17 18 19 20 21 22 23 24 25 26 27 28 29 30 31 32
cat_threshold=2 4 2 1 96 1 1 2 2 2 1 656 2 2 52 1 1 2 2 2 69 225 2 60 1 2 281 1 7 2 48 167
is_linear=0
shrinkage=0.0287644


Tree=2
num_leaves=93
num_cat=32
split_feature=21 47 35 27 35 47 20 26 27 43 43 43 43 16 43 20 43 47 47 47 47 12 12 43 7 45 19 43 19 16 46 12 43 40 44 37 16 45 43 43 4 37 44 4 37 43 43 46 46 45 48 47 43 43 4 10 15 12 45 43 44 46 16 36 47 43 48 46 46 44 47 36 16 47 44 47 44 43 45 46 45 11 45 45 44 43 48 45 47 48 45 43
split_gain=9772.2 3386.01 1422.24 865.652 720.996 685.253 344.888 321.849 211.308 176.768 170.532 160.869 159.251 126.735 160.805 96.5328 94.9809 72.9659 70.9923 59.8502 59.1627 52.6189 38.2118 36.101 34.4345 32.9589 32.5998 31.9069 29.3966 29.3918 28.9766 41.5032 28.0863 27.0679 27.0019 25.8879 26.9379 28.2551 24.9247 23.9617 23.7828 22.6227 22.1052 20.8367 20.8232 20.7116 19.4572 19.3963 18.4259 17.8781 17.8256 17.1891 17.8468 15.7024 15.4119 15.0249 12.4493 12.4373 12.385 17.1526 13.6649 11.8017 11.7146 10.6598 10.237 9.90806 8.83619 8.8007 8.70386 8.59018 8.50522 8.16234 10.2361 7.95601 7.95108 7.81415 7.63817 7.42989 7.33631 7.04205 6.94595 6.75414 6.66706 6.63536 8.31658 8.56116 6.58213 6.50881 9.5795 6.24839 9.92596 5.89461
threshold=0 35.500000000000007 1 2 3 38.500000000000007 4 5 6 2100.5000000000005 3580.5000000000005 2700.5000000000005 2863.5000000000005 7 2351.5000000000005 8 2409.5000000000005 34.500000000000007 36.500000000000007 41.500000000000007 31.500000000000004 9 10 1080.5000000000002 11 27.500000000000004 12 2248.5000000000005 13 14 43.953125000000007 15 3288.5000000000005 16 250.50000000000003 17 18 47.500000000000007 4210.5000000000009 3460.5000000000005 19 20 114.50000000000001 21 22 2210.5000000000005 3130.5000000000005 23.953125000000004 18.851562500000004 47.500000000000007 46.500000000000007 27.500000000000004 4082.5000000000005 3345.5000000000005 23 24 25 26 29.500000000000004 2430.5000000000005 270.50000000000006 17.046875000000004 27 28 31.500000000000004 2409.5000000000005 49.500000000000007 34.046875000000007 19.750000000000004 99.500000000000014 39.500000000000007 29 30 47.500000000000007 179.50000000000003 16.500000000000004 220.50000000000003 3560.5000000000005 34.500000000000007 29.953125000000004 49.500000000000007 31 60.500000000000007 28.500000000000004 126.50000000000001 2585.5000000000005 20.500000000000004 29.500000000000004 22.500000000000004 25.500000000000004 40.500000000000007 3320.5000000000005
decision_type=9 2 9 9 9 2 9 9 9 10 10 10 8 9 10 9 10 2 2 2 2 9 9 8 9 8 9 10 9 9 10 9 10 9 10 9 9 10 10 8 9 9 8 9 9 10 10 8 8 10 10 2 8 10 9 9 9 9 10 10 10 10 9 1 2 10 8 8 8 10 2 1 9 2 8 2 10 8 10 8 8 9 8 10 10 10 10 10 2 8 10 10
left_child=1 3 -2 -1 9 8 13 -6 -4 35 15 17 22 14 61 20 82 41 26 33 32 -15 -7 -23 27 39 56 -17 -20 51 31 -16 54 66 40 86 37 67 81 47 -29 45 -22 -44 68 89 64 -21 -24 70 55 -12 -53 63 -11 -45 -13 -49 60 -60 75 -3 91 -30 -28 78 -14 69 -19 -37 74 72 -27 -72 -50 -56 77 -35 -57 83 -55 -25 -8 84 -47 -86 -5 88 -71 -10 -91 -34
right_child=2 6 5 4 7 12 16 -9 11 10 29 18 19 21 30 24 -18 44 28 25 42 23 48 38 -26 71 46 34 53 -31 -32 -33 62 76 -36 36 -38 -39 -40 -41 -42 -43 43 50 -46 79 -48 57 49 -51 -52 52 -54 80 58 65 -58 -59 59 -61 -62 -63 -64 -65 -66 -67 -68 -69 -70 87 73 -73 -74 -75 -76 -77 -78 -79 -80 -81 -82 -83 -84 -85 85 -87 -88 -89 -90 90 -92 -93
leaf_value=0.33429091850890286 0.44110233767648444 -0.0012173283731898559 0.16425559012771729 0.012698912280551132 0.44381413822682841 -0.0069976956643444631 0.1711633533228403 -0.0052674114594891902 -0.0032263582773527592 -0.0036958299560335105 0.0068307994446240184 0.029575997171646506 -0.0052733861214020105 0.018875884612386949 0.0092630842366058959 0.011858449315366899 0.40670576951717857 -0.0016891229299760206 0.045142735784519543 0.009189865112778162 0.0056120391891003761 0.017819842528753519 -0.0043126786234223714 0.01533272558134878 0.027528595581482407 0.04800799561537708 -0.020591902079662733 0.15584026064385559 0.011719091906504371 -0.0024099126253690939 0.0099432448632053704 0.28496291530714485 -0.00081019576016138489 0.037930832850462254 0.0015365988864130505 -0.0033019879194458607 0.0071482745816214329 -0.012975215615250356 0.012180396061002526 0.015402883358823123 -0.0011239522644411689 -0.01655304958749261 -0.00032272090463527942 0.0063468683128020797 -0.0046510556592188638 -0.0060553019796327039 -0.024043281889990716 0 0.051736664038392659 0.0010033352490756101 0 0.066796953509128537 -0.00054184961425139536 -0.016617233308276271 -0.0014479236118720173 0.051019806116037208 -0.0064449668492314351 0.10325903868760529 0.0065551758738656698 0.050048529857269757 0 0.102118788901739 -0.00030023205352037416 -0.005616157962867011 -0.012861312679930207 0.11640225022528636 0.020643360546325207 0.017190768150278122 0.044228735278918539 0.0094166193877316083 0.1045850689119887 -0.0058754755542515785 0.00057149530667817698 0 9.0770679107279363e-05 0.074293041131876306 -0.003788857070344662 0.00925068322082832 0 -0.013745031248734453 0.0037633846023265431 0.16355901787747798 0.0090034016088555938 -0.0079980749305044712 0.021655132275337809 -0.0026216895091231937 -0.0099219903333942708 0.024449701570574137 0.07630672418377954 0.030469994822810549 -0.010385525865658074 0.039941397615895838
leaf_weight=5.4648969508707523 1.1125594403129071 0.62200532847782497 0.70699870632961392 12.202658495109061 1.2627845489187157 3.3093350576236844 12.034405713726301 1.5092023370671086 6.655466162832453 2.2777113834163174 12.536117942305284 4.406931976787746 87.168204313958995 3.9984259696793742 0.86002319341059774 2.6393228504457538 13.974881910893599 2.8355442482279605 4.8602422195253894 3.90056246204768 3.1044183936901382 2.9567319440538986 1.2737123011029314 1.4224793222383596 5.7533388843294224 7.5067325073177908 655.75358162593329 22.913411555986382 35.282997526344843 28.125073081348091 0.76503009418956835 32.613117313419934 2.6038316152989891 28.727594246214721 1.2840847226325411 1.0435686393175263 26.795949718041811 4.4530217779101795 1.8805341014522117 9.2258589624543657 0.60486349335406941 112.37583274615463 1.4710947485291399 2.1260608242009766 17.588334045431111 32.097824749187566 2382.1634178266977 1.0175469514215365 9.4499613367370294 2.3540042625390916 1.2637614607228886 11.761996846355029 3.554958042630461 97.015557987848297 0.66567870223661785 6.6919451550347713 64.933892646746244 11.184983938466754 11.855000633397138 36.021076742443256 2.0920284526073365 11.980058936343992 11.565718880912756 57.42228409985546 233.88393538381206 36.707061624678317 7.7676370745757586 11.819451694842426 37.678008856659289 3.850600108155052 26.557531666592698 10.513642340258231 6.3750722467084415 0.39331772306468238 3.5675671098870234 65.552211014204659 4.6050867606536476 15.988821779435964 2.3908503941493109 48.918099296861328 13.2611131867161 72.053757193672936 0.89681444375310171 61.820352706068661 25.201074414828327 17.393299232586287 24.352619359560777 11.751791290356776 20.689283892395906 22.719906910788271 3.188875099294818 14.778598199191036
leaf_count=3595 1298 741 939 21838 1346 6288 13297 2696 12642 4076 22123 8030 162074 6894 1491 4378 11560 5369 8307 6790 4967 3941 2378 1490 9938 13281 1288368 35506 65986 52126 730 27466 4035 52282 2114 1847 47334 8246 2674 16960 1042 219202 2461 3641 33505 61043 4716897 1921 15000 4340 1997 20058 6422 186937 1111 10668 123292 17243 20347 57989 3647 13043 19416 109113 454205 55850 14383 21333 64477 6955 41663 18868 11286 603 5853 104530 8545 29882 3983 94831 25558 64542 1092 117605 46676 32611 43211 21024 36068 40004 6145 23292
internal_value=-0.000247633 0.110817 -0.0155408 0.0665455 0.0593381 -0.0161424 0.223428 0.346095 -0.0190326 0.0535753 0.0655611 -0.0192571 0.030541 0.190276 0.24118 0.076229 0.331868 -0.00163028 -0.0211787 0.0180413 0.0657671 0.150112 0.0758704 0.155275 0.12382 0.0439233 -0.0221939 0.136887 -0.0046792 0.0183439 0.276262 0.280133 0.0530256 0.00797675 0.145911 0.0223915 0.0294357 0.0440151 0.159207 0.0647926 0.151858 -0.00696907 0.0936757 0.097959 0.02685 -0.000953265 -0.0226076 0.0829357 0.0824693 0.0854939 0.100895 0.0370669 0.0540232 -0.00688704 0.0594175 0.103471 -0.00232583 0.0969474 0.0608434 0.0409976 0.0711803 0.097365 0.0220223 0.00172791 -0.018648 0.106773 -0.00199247 0.0500536 0.0334771 0.0571951 0.0896001 0.0151031 0.0209648 0.102919 0.0419217 0.0733232 0.0221862 0.0297055 0.0412279 -0.00486432 -0.0140132 0.161895 0.165835 -0.00126042 0.00430755 0.0121952 -0.00122262 0.0593932 0.0693126 0.0186222 0.0242622 0.0343995
internal_weight=4751.76 571.594 4180.16 415.536 410.071 4179.05 156.058 2.77199 3938.16 407.299 290.34 3937.46 240.887 129.152 46.8402 234.362 26.9061 388.473 3548.98 193.982 201.167 82.3119 46.9054 78.3135 33.195 49.7244 3341.14 27.4417 207.842 55.9781 34.2382 33.4731 147.412 144.257 24.8024 116.959 80.4037 53.6077 75.3568 25.329 23.5183 330.371 53.7552 50.6508 58.1019 217.995 3271.8 16.1031 43.5961 42.3224 49.1797 27.8531 15.317 202.982 118.464 47.9159 69.3408 12.2025 116.186 47.8761 68.3099 12.6021 28.9481 92.7053 889.638 45.7899 94.9358 49.1547 40.5136 37.3352 39.9684 24.3954 13.8818 26.9508 13.0175 66.2179 49.3215 44.7164 9.0828 185.431 110.277 73.4762 12.9312 136.513 74.6922 42.5944 36.5553 36.2917 24.5399 32.5642 25.9088 17.3824
internal_count=8992851 840171 8152680 691210 687615 8151382 148961 4042 7721742 683573 475717 7720803 429640 123012 43471 374988 25949 734110 6986693 353515 322010 79541 76125 72647 52978 86349 6590792 43040 395901 100729 29687 28957 238443 267166 38662 207856 142807 95473 68706 42914 36548 630759 83567 78600 103351 411557 6459470 25954 69837 67459 76139 48603 26480 387594 191700 74142 131322 19164 187624 78336 109288 13784 46743 175099 1742573 70501 176457 87227 69846 65894 63119 43435 24567 42266 20853 105641 90709 82164 14651 352766 212495 66032 14389 257935 140330 79287 65049 64047 43023 58791 46149 27327
cat_boundaries=0 1 2 3 4 5 6 7 8 9 10 11 12 13 14 15 16 17 18 19 20 21 22 23 24 25 26 27 28 29 30 31 32
cat_threshold=2 4 2 1 1 1 2 1 1 2 2 1 2 2 1 2 10 10 2 1 69 2 225 2 2 2 2 1 15 55 1 2
is_linear=0
shrinkage=0.0287644


Tree=3
num_leaves=93
num_cat=26
split_feature=21 27 47 35 47 47 35 3 43 43 30 43 47 47 7 47 3 4 12 47 37 45 45 12 19 43 7 43 3 44 43 2 43 44 43 46 43 47 43 44 37 3 44 43 47 43 46 43 44 47 19 43 46 46 45 48 43 37 4 43 47 46 46 3 46 15 44 43 43 47 44 45 45 44 35 45 47 44 45 48 46 45 43 43 11 20 44 44 45 46 44 46
split_gain=8438.87 2210.78 1856.86 1375.15 689.763 399.772 393.649 245.192 198.102 178.864 177.629 134.535 106.419 81.1239 74.3306 65.1954 60.3584 59.6077 59.1792 55.5217 38.5233 40.5931 37.5684 39.0635 37.1595 36.0609 34.6924 33.2089 31.8894 30.5346 29.2242 26.432 32.6706 33.8544 29.6242 25.7411 25.5218 22.1469 19.3228 18.4057 18.1387 17.2479 16.0852 15.2089 17.2692 15.1067 14.4869 14.0679 12.8015 12.4989 12.3873 12.313 12.1432 11.7937 12.7779 11.0009 11.3978 10.9421 10.6399 10.4986 11.9658 11.0911 10.4773 10.4506 10.2542 10.1818 10.178 9.97223 9.91966 9.30649 9.15107 8.72008 7.78141 7.76757 7.71527 7.51699 7.97356 7.27169 6.9338 6.81305 6.65675 6.61324 6.57889 6.57483 6.31029 6.22146 5.90026 6.63111 5.66668 5.65719 5.61717 5.33215
threshold=0 1 34.500000000000007 2 38.500000000000007 39.500000000000007 3 4 2690.5000000000005 3060.5000000000005 5 3450.5000000000005 47.500000000000007 34.500000000000007 6 34.500000000000007 7 8 9 41.500000000000007 10 43.500000000000007 34.500000000000007 11 12 1080.5000000000002 13 2100.5000000000005 14 288.50000000000006 1905.5000000000002 15 3570.5000000000005 190.50000000000003 2290.5000000000005 36.640625000000007 2892.5000000000005 47.500000000000007 3130.5000000000005 191.50000000000003 16 17 125.50000000000001 3458.5000000000005 36.500000000000007 1080.5000000000002 22.351562500000004 4520.5000000000009 104.50000000000001 41.500000000000007 18 4082.5000000000005 27.351562500000004 39.359375000000007 56.500000000000007 33.500000000000007 3429.5000000000005 19 20 2290.5000000000005 35.500000000000007 35.140625000000007 42.140625000000007 21 19.351562500000004 22 192.50000000000003 3515.5000000000005 3374.5000000000005 26.500000000000004 265.50000000000006 13.500000000000002 19.500000000000004 211.50000000000003 23 33.500000000000007 20.500000000000004 129.50000000000003 9.5000000000000018 31.500000000000004 24.851562500000004 61.500000000000007 2881.5000000000005 2409.5000000000005 24 25 172.50000000000003 129.50000000000003 48.500000000000007 37.953125000000007 164.50000000000003 34.046875000000007
decision_type=9 9 2 9 2 2 9 9 10 8 9 8 2 2 9 2 9 9 9 2 9 10 10 9 9 10 9 10 9 10 10 9 8 10 10 10 10 2 10 10 9 9 10 10 2 8 8 8 10 2 9 8 10 10 10 8 8 9 9 10 2 10 8 9 8 9 10 10 8 2 10 8 10 10 9 10 2 8 8 8 8 8 10 10 9 9 10 8 10 10 8 8
left_child=1 -1 6 -2 8 14 7 11 13 19 -8 26 17 27 42 24 55 18 -7 35 21 31 23 -16 63 -20 -3 40 43 45 -24 32 33 34 -9 36 46 48 74 51 64 72 -4 44 78 -25 -6 -47 -21 50 -18 67 -51 54 -28 -11 81 -29 91 77 -61 83 -32 -10 -5 -30 -66 -13 84 -59 -50 -71 -22 -35 -26 76 -69 -15 -17 -79 -77 -57 -67 -62 -44 90 87 -46 -48 -81 -84 -36
right_child=3 2 5 4 9 12 10 20 15 16 -12 39 -14 59 22 28 49 -19 25 37 41 -23 30 29 38 -27 53 57 65 -31 62 -33 -34 73 58 -37 -38 -39 -40 -41 -42 -43 68 -45 86 47 88 -49 70 52 -52 -53 -54 -55 -56 56 -58 69 -60 60 61 -63 -64 -65 66 82 -68 75 -70 71 -72 -73 -74 -75 -76 80 -78 79 -80 89 -82 -83 85 -85 -86 -87 -88 -89 -90 -91 -92 -93
leaf_value=0.46324005575497518 0.413990396345148 0.03541305308211308 -0.0012519974328128044 -0.0073571253800210025 0.016551245655985664 0.033062792472867551 0.32507691942264344 0.037894829239504386 0.013088233980119173 -0.0025227338118755426 -0.0050616571049934252 0.0033754622217279304 -0.0049880343880206414 0.0026403843520495913 0.011502111506774255 0.017519189931573902 0.032621933109883414 0.040780747563262179 0.031027160130036483 0 0.035593368786383174 0.00057231355142276375 0.00025136885806578067 0.033023578079996625 -0.018808759189875339 0.24185395878620156 0.11050488709075432 -0.015312946665739516 0.0082012963301645071 0.0045353631005765407 0.093637057585580261 0.0022217628311848479 0.0023948091146255633 -0.0018838528890055156 0.083187912297319089 -0.010456595256119446 0.013601901719121014 -0.0034192198356680719 -0.024304533229222023 0 -0.0095754681298319631 -0.0077759953234341952 -0.00071184967223648476 -0.012655949465966126 0.0010121084760901524 0.1567468280113809 0.074745327808262901 0 0.11381018681109405 -0.0026875146182618833 -0.0097857346635212179 -7.9937817078631307e-05 0.03205108964724903 0.028766740900357614 0.018008426205941026 0.056212823173415541 0.020702585779048797 -0.0098554089183322344 -0.0021350582339119397 -0.00076524782090168879 0.00037043383226559946 -0.0077318825839569599 0 -0.0073131896024269281 0.050030637409145928 0 0 -0.0013587774638922749 0.0070846692331912736 0.019362175883437697 0 -0.0011937756089720781 0.0069020496620110184 0.027794458841097928 0.01786783626549239 0.034561396143961656 0.078564966480272669 -0.0017443851562605518 -0.0073974813903772765 0.071438964177108877 -0.0033866949842287996 0 -0.021878262127839544 0.041218479709042841 0.075781193809392799 0.01635691015557289 0.0013396435246946928 0.029719275008357485 0.0011164172269266053 0 -0.012543575320385691 0.0069886152388279419
leaf_weight=9.1595875446801074 1.6527110894676298 13.452269331086427 2.7169952621334259 2.0980021698633236 8.8769327312475053 2.9728607342112809 1.742258775047957 47.295420663431287 17.165489838225767 4.1645410418859674 1.4568452120292932 4.5292943047243233 1.4366873818798911 2.910898067580999 2.702655182860326 6.1122653851052737 1.6214744846802205 3.7927679949207223 2.2657587304711333 0.92185316851828858 12.50814070709748 25.973864122934174 3.522192290169186 3.9083044161670832 811.76114756189054 57.123008097812999 82.85089456778951 90.01069764548447 10.348700408998411 1.6238231651950616 29.333079300005924 27.344738066662103 13.119001304672564 9.3048932245001215 39.690632743178867 4.7882444566930635 16.597070639254525 1.0692763862316486 2103.8144144301768 11.997107624541966 10.845543292700311 37.429161927371752 0.52929506404325366 54.229395365167875 10.076070217241066 81.841404807229992 25.236617693735756 0.61743811063934018 20.31011731148465 15.243282842391638 80.179518949938938 4.4271803059382355 11.136039754026568 6.0315909058554089 3.5413817797671063 27.665771500498526 26.354367006802931 85.052025597193278 0.79964379488956083 13.886490534874609 4.4767351149348604 3.5824056662968351 1.0108351663220663 45.690933675388806 17.782276619866028 16.856100324774161 3.9824768276303066 0.64880071685184049 3.591221109381876 16.459794242400676 0.39462599891703476 85.078632458637003 22.17488358495757 16.381859500485007 1.099638154846615 4.6118630836717758 8.6364278959808853 0.7226258380105709 63.994230968935881 8.4244291785871592 4.4601289230049597 1.3990110386512231 191.11173282266827 21.823394395236392 18.33722329692683 0.65069364616647263 16.602202130015939 25.52826572873164 1.3658570095431048 0.99279299064073789 119.37602333154064 2.0066108093014909
leaf_count=4486 1241 22546 2894 3779 14108 4707 1206 80497 31854 7202 2625 6423 1271 5150 4314 11927 3061 2272 2158 1572 20304 46545 4722 5692 1622113 31665 111072 178484 20413 1877 27186 46015 24064 15368 62430 8355 29872 1809 4266766 20753 21490 67006 628 107875 18808 74408 37955 946 30051 27231 151248 8191 19051 8589 4868 45893 47316 162154 1512 24033 7719 6186 1053 87734 31708 32540 7005 1090 3414 31233 592 161732 37317 27969 2195 7580 14086 1232 126629 14376 7497 2476 380180 37802 18542 1252 30515 46347 2558 1715 236864 3130
internal_value=0.000124306 0.0978652 0.0891264 -0.0149145 -0.0155452 0.15623 0.0515235 0.0469591 -0.0185368 0.0306232 0.258353 0.0758771 0.217724 0.00148743 0.122821 -0.0206488 0.0129785 0.222735 0.230118 0.064989 0.025429 0.0327364 0.133004 0.146749 -0.022292 0.23676 0.097609 -0.00437768 -0.0110061 0.150011 0.0829283 0.0398939 0.0439971 0.052024 0.0603068 0.0434313 0.0490318 0.10237 -0.0227629 0.030354 0.0204308 0.00446245 0.0594538 -0.000486128 0.00503857 0.152256 0.0619001 0.155761 0.107732 -0.00136763 -0.0071437 0.0417948 0.0141474 0.104465 0.107927 0.0325937 0.0408552 -0.00781095 0.0789526 0.0317632 0.0207269 0.0298393 0.0909128 -0.000206964 0.0275126 -0.0159044 0.042469 0.0489952 0.0662075 -0.00290108 0.11158 0.00271285 0.0163031 0.0179869 -0.0186462 0.056848 0.0735226 0.0532439 -0.00413827 0.0616785 0.0201319 0.0535294 -0.0172796 0.0357185 0.0734151 -0.0182146 0.0169139 0.0229158 0.072051 0.0663663 -0.0185581 0.0808163
internal_weight=4740.42 628.9 619.74 4111.52 4109.87 217.326 402.415 399.216 3862.55 247.325 3.1991 145.187 67.5911 368.129 149.734 3494.42 167.764 66.1544 62.3616 79.5606 254.029 181.917 124.56 90.6936 2979.53 59.3888 105.876 311.309 514.886 87.991 33.8661 155.943 128.598 115.479 89.7923 56.8647 52.0765 22.6959 2916.68 39.3108 34.7083 72.1122 25.1747 176.542 122.313 86.3671 35.4794 82.4588 21.6266 108.18 81.801 27.3137 26.3793 92.4239 86.3923 59.5837 55.4191 276.601 42.4969 56.8198 43.769 29.8825 30.3439 62.8564 23.8628 338.343 21.7648 22.8865 22.4577 186.59 20.7047 101.538 34.683 25.6868 812.861 18.3572 9.28523 13.0507 70.1065 10.1398 9.07199 29.0648 327.995 26.3001 18.8665 311.138 52.2065 35.6043 26.6025 9.41722 310.488 41.6972
internal_count=8992319 840918 836432 8151401 8150160 187749 648683 644852 7719810 430350 3831 212695 42073 695798 145676 7024012 303478 40802 38530 126872 432157 307530 120198 87237 6010662 33823 147075 597585 1013350 82923 32961 260985 214970 190906 147569 92848 84493 34024 5891074 65620 63982 124627 25478 342101 234226 81046 54621 75354 32215 200591 154309 44867 46282 124529 115940 102887 95685 533603 67072 98213 75740 51707 28239 119588 42492 671249 38713 36676 22584 355119 30643 192965 57621 43337 1624308 30253 15176 22473 138556 17323 15077 48369 650836 45521 19170 618296 95670 65155 40513 16091 617044 65560
cat_boundaries=0 1 2 3 4 5 6 7 8 9 10 11 12 13 14 15 16 17 18 19 20 21 22 23 24 25 26
cat_threshold=2 2 4 1 96 1 2 52 1 2 69 2 2 2 1082 380 77 784 2 42 1 40 2 1 2 1
is_linear=0
shrinkage=0.0287644


Tree=4
num_leaves=93
num_cat=31
split_feature=21 35 47 35 25 27 47 27 3 43 47 43 20 43 47 47 47 3 45 16 43 43 47 43 19 37 45 43 4 43 3 37 12 46 43 43 44 7 43 47 44 3 12 46 35 11 37 43 46 45 43 43 47 19 47 46 43 45 16 47 23 44 3 46 43 46 45 12 46 43 44 15 46 44 45 7 46 43 46 44 43 44 27 45 48 45 20 44 47 48 44 44
split_gain=7422.62 1558.27 1401.27 1197.95 752.173 667.916 658.173 236.118 200.301 194.81 190.563 154.563 103.377 99.9362 93.0809 84.3631 55.9059 54.8815 51.9292 47.6346 56.4407 45.1364 42.6091 38.7907 35.1887 34.312 35.946 32.1857 27.3212 25.5235 25.4973 25.0201 23.9745 23.2384 22.9543 25.5818 29.1441 22.8318 21.5481 18.364 16.9193 16.3678 15.6137 14.8876 14.7404 14.5881 14.5569 13.8662 12.6173 19.4941 12.3587 12.2529 12.1935 11.9134 13.4213 11.3711 11.2486 11.1613 10.9363 13.3173 10.1194 10.0885 9.61862 9.41764 8.82132 8.20639 7.94292 7.85751 7.64206 7.36369 16.5815 7.33964 7.33184 7.09737 7.08709 7.03498 7.16746 6.75049 8.15079 11.4676 6.63727 6.57475 6.50183 6.37102 6.29611 6.12198 5.92891 5.9001 5.69947 7.32508 5.63253 5.59992
threshold=0 1 34.500000000000007 2 3 4 38.500000000000007 5 6 2770.5000000000005 41.500000000000007 3060.5000000000005 7 3450.5000000000005 33.500000000000007 47.500000000000007 34.500000000000007 8 39.500000000000007 9 1811.0000000000002 3610.5000000000005 41.500000000000007 1080.5000000000002 10 11 43.500000000000007 2100.5000000000005 12 3590.5000000000005 13 14 15 36.640625000000007 3570.5000000000005 2290.5000000000005 192.50000000000003 16 2892.5000000000005 47.500000000000007 191.50000000000003 17 18 46.359375000000007 19 20 21 3130.5000000000005 42.546875000000007 60.500000000000007 3710.5000000000005 3458.5000000000005 36.500000000000007 22 41.500000000000007 22.351562500000004 4082.5000000000005 15.500000000000002 23 40.500000000000007 24 104.50000000000001 25 26.546875000000004 3515.5000000000005 19.351562500000004 26.500000000000004 26 42.046875000000007 1905.5000000000002 117.50000000000001 27 39.140625000000007 256.50000000000006 19.500000000000004 28 36.859375000000007 2495.5000000000005 37.953125000000007 141.50000000000003 4040.5000000000005 192.50000000000003 29 58.500000000000007 34.500000000000007 27.500000000000004 30 132.50000000000003 36.500000000000007 43.500000000000007 103.50000000000001 164.50000000000003
decision_type=9 9 2 9 9 9 2 9 9 10 2 8 9 8 2 2 2 9 10 9 10 8 2 10 9 9 10 10 9 10 9 9 9 10 8 10 10 9 10 2 10 9 9 10 9 9 9 10 10 10 10 10 2 9 2 8 8 10 9 2 9 10 9 10 10 8 10 9 10 10 8 9 8 10 10 9 10 10 10 8 8 10 9 10 8 10 9 10 2 10 8 8
left_child=1 2 7 -2 -3 10 9 8 13 14 12 22 19 37 27 18 24 58 23 20 -4 -9 33 -12 44 26 34 46 67 42 71 73 -14 38 35 57 90 -1 55 61 56 74 -21 69 47 -22 65 -11 49 -47 -31 52 -32 -19 -55 -8 64 68 59 85 -29 -24 -26 -56 -15 -5 -33 -25 -10 -34 -71 -18 -52 77 -27 -44 -77 78 79 87 84 -67 -62 -66 -61 -13 91 -16 -79 -90 -37 -73
right_child=3 4 5 6 -6 -7 11 21 25 16 15 17 32 40 31 -17 30 53 -20 29 45 -23 39 28 62 41 -28 60 -30 50 51 66 43 -35 -36 36 -38 -39 -40 -41 -42 -43 75 -45 -46 48 -48 -49 -50 -51 72 -53 -54 54 63 -57 -58 -59 -60 80 82 -63 -64 -65 83 81 -68 -69 -70 70 -72 86 -74 -75 -76 76 -78 88 -80 -81 -82 -83 -84 -85 -86 -87 -88 -89 89 -91 -92 -93
leaf_value=0.033728683796517472 0.36076621796569497 0.55154811976070761 0.0089106048467892662 -0.006998258930304581 -0.0081386786635866439 0.42439230816562906 0.016056099046043885 0.1799641511494873 0.044380737436081667 -0.019029071758011065 0.0073458657677635776 0.03335560651005072 0.012212005027306783 0.0033212130978576399 0.027516143815659058 -0.0049114138858389351 0.00485078682041073 0.035586004285463615 0.054577610132495277 0.0052333380764367447 0 0.0072019643871329992 0 0.02162341322522934 0.011931921792808775 0.033926626929185383 0.00055801892787156904 0.026365689306860302 0.015906738487580018 -0.010708909204295203 -0.0045352771513621961 0.0078964838953238126 0.071293381634292538 -0.010358113387507426 0.002171094770656769 0.0025476643371741582 0.012053997501192277 0.092112251802603351 0.013151054841183944 -0.0034026761593168886 0 -0.0076581720490499034 0.088885871800413477 0.0075317696652143599 0.026187740647979022 0.12951986817442282 -0.009104975500687517 -0.02425685763468113 0.008883054045243902 0 0.04548059918392626 -0.012581549084678909 0.013752415358891599 -0.0096090737062331285 -0.0034757191025255553 0.066084769245037242 -7.8804534625136546e-05 0.015418578852086041 0.017453453746731063 0 -0.01123951244530956 0.099180857698633676 -0.0075660744836961776 0.026987428041368004 0.057457452199018898 0.043550518082137217 -0.018321017961054207 0.23405886523607342 -0.0028299157899803937 0.015020308829060107 0.18732572440283032 -0.020971769743874928 -0.0028270751923964682 -0.0060838634008066224 0.006698126056677218 0.048792494251685463 0.00016664539499633429 0.011841838217391831 -0.0041011988588633454 0.067526715959553216 -0.0013234757503058755 0 0.022126353901700067 0 0.073800567460247504 0.0011334490102511139 0.016080531504737299 -0.0068658194085468851 0.044053582589791494 -0.0051147143826896059 0.064808752040179801 -0.011819341384839747
leaf_weight=13.936588635027874 2.496867872774601 4.2520163824665351 4.7249991365824817 1.9888664782047296 2.3475708665791899 2.7165108678163952 9.0248872378724609 9.1286030702758545 25.795333704678345 703.36479185847566 1.1453379986342067 9.8813725881627779 1.8756281125824898 4.5445863936911399 7.7993287056451717 1.4175837971270073 10.120068906107917 2.2320925251115113 5.8643938311142838 3.1894416640279815 0.84666027995990589 1.9635742884129292 0.92185316851828858 1.2509689322323538 17.3590439457912 12.960783136426469 25.988716720952652 1.7974141592276283 1.3451286900090114 3.3211144619272082 64.210198843909893 18.314972338557713 9.5916651116567646 4.7384934660512945 15.105222420534117 2.0145865232334463 14.579378273803739 102.3280068836757 16.824107556894887 1.0656309279729601 11.997107624541966 37.139565279474482 71.024402038077824 1.1160585667821568 1.2946047527948383 60.534303199674468 10.238844646723008 2049.9335857008118 1.6770454199868243 0.98304200021084298 9.0753249863046186 53.96011829157942 48.984160165418871 79.39954840647988 13.585720119415784 28.559769800980575 4.426826717273797 48.91777652152814 28.523800398106687 1.0068265433073929 346.31898850912694 23.149136373773217 46.409132423868868 12.558088827296158 17.861766009940769 17.394695101538677 11.793552283954339 24.810096156550571 2.0506462019984601 1.4639196755015316 26.098047213861719 194.19378333410714 2.0482455479796053 1.7263049111352291 22.328280009911396 12.572489308426158 3.5434906778391442 27.425619254179765 1.2239218336180773 14.027815441892015 0.64217573235509995 3.7215758478851049 0.62891386274713923 1.3464166576159176 12.612538607965689 9.0548050877405313 0.68258907506242295 3.2617889520479366 10.924445155425927 1.4701881831279013 53.290653992269654 120.87034096254501
leaf_count=22546 1241 2064 5627 3611 3357 964 14108 2715 43097 1433028 1000 16786 2487 6423 13311 1262 19820 4034 2945 5223 781 584 1572 1908 31989 20304 46545 3483 701 2476 127960 34724 9740 8355 27648 3073 23223 124529 29872 1809 20753 67006 56152 1009 2648 42349 20482 4259672 1492 1025 8093 108710 88491 151248 24411 40513 8191 81545 47868 1645 680526 30643 90081 20898 28004 29524 22429 9955 3602 859 15278 394181 2029 3013 37317 10982 3009 49582 2068 22800 1153 6550 1133 2249 19954 15481 1293 5324 18315 2462 78797 242600
internal_value=0.000161173 0.087296 0.0811454 -0.0146961 0.429103 0.134536 -0.0153337 0.0485522 0.0438293 -0.0183447 0.123829 0.0291378 0.108825 0.0689859 -0.00118153 0.190768 -0.0208243 0.0125625 0.19876 0.0939802 0.117233 0.161078 0.0600007 0.216501 -0.0224003 0.0242165 0.030964 -0.0076544 0.222597 0.0743886 -0.0116702 0.0231731 0.156711 0.0408419 0.0374933 0.0408806 0.0539881 0.0867365 0.0459516 0.091577 0.0292082 0.00434139 0.0803993 0.16148 -0.0228888 0.12394 0.0176461 -0.022959 0.125425 0.127599 0.0259717 -0.0017156 0.00350424 -0.00127685 -0.00370971 0.0573656 0.0399257 0.0264625 0.0308724 0.0467991 -0.0103015 0.0960618 -0.00100951 0.0126011 0.0466122 0.0240594 -0.00239711 0.228952 0.0406349 0.164505 0.181947 -0.0161083 0.0375968 0.0302691 0.0157544 0.0826292 0.041046 0.0359955 0.048749 0.0519531 0.0663282 0.03754 -0.0108617 0.0537773 0.069694 0.0216354 -0.0173785 0.0175811 0.0231896 0.0377255 0.0630997 -0.0177141
internal_weight=4734.26 686.54 679.94 4047.72 6.59959 252.236 4045.22 427.704 416.612 3791.44 249.519 253.781 213.686 156.441 480.057 35.8335 3311.38 169.497 34.4159 173.541 68.7661 11.0922 84.2839 28.5515 2818.36 260.171 187.742 382.089 27.4062 104.775 493.021 97.9679 40.1453 59.1473 161.754 146.648 69.8846 116.265 54.4088 25.1366 40.1767 72.4286 90.3298 38.2697 2754.59 64.0411 33.344 2753.3 63.1944 61.5173 14.4447 167.154 113.194 107.775 105.543 37.5847 28.1796 76.7638 61.7215 33.1977 348.745 24.071 63.7682 26.1438 23.7528 23.1051 30.1085 26.0611 27.846 37.1536 27.562 325.867 11.1236 67.8594 35.2891 87.1404 16.116 66.1331 26.3129 25.0889 14.2615 21.1163 346.948 19.2082 13.6194 18.9362 315.747 11.0611 39.8203 12.3946 55.3052 315.064
internal_count=8992319 840918 835497 8151401 5421 187346 8150160 648151 644852 7719810 186382 430350 168611 212695 919337 17771 6800473 303478 16509 139238 51274 3299 126872 13564 5817418 432157 307530 745309 12564 87964 983055 174028 29373 92848 260985 233337 105093 147075 84493 34024 65620 124627 75366 26886 5695348 45647 60167 5692700 44866 43374 12598 325161 216451 200591 196557 54621 44867 128244 102887 55019 685142 32215 122070 45309 36676 39685 57153 11863 46699 25877 16137 657894 10122 116875 57621 70143 13991 113862 43503 41435 22752 36074 681659 30253 21599 32267 638074 18635 70359 20777 81870 636781
cat_boundaries=0 1 2 3 4 5 6 7 8 9 10 11 12 13 14 15 16 17 18 19 20 21 22 23 24 25 26 27 28 29 30 31
cat_threshold=2 1 4 1 1 1 96 1 52 1 1 69 1 960 101 2 2 784 2 1 2 77 2 1 2 1064 2 2 1 1 1
is_linear=0
shrinkage=0.0287644


Tree=5
num_leaves=93
num_cat=34
split_feature=21 47 35 47 27 35 35 27 43 3 47 3 25 16 47 43 47 45 16 43 19 43 43 43 19 43 48 43 39 3 47 45 44 43 6 43 46 45 40 47 45 37 44 43 44 4 39 47 45 20 39 47 43 46 44 45 47 37 3 19 45 46 46 44 45 3 48 7 43 44 15 35 48 39 45 44 43 46 44 48 43 47 48 43 36 44 48 45 20 6 44 7
split_gain=6629.53 1175.85 1025.28 629.238 604.691 290.875 230.235 192.161 191.97 169.548 142.53 139.455 101.871 87.7405 87.6184 62.3348 55.7561 49.2727 46.4868 50.5225 34.8526 34.3632 32.3669 29.4886 28.9333 28.8324 28.5666 26.8533 25.2212 24.7828 24.5871 24.0975 23.8402 20.1935 18.568 18.4886 18.1937 17.7505 17.0509 18.6396 16.732 16.2196 15.5564 14.8771 13.7369 13.4531 13.4228 12.8999 12.251 12.2145 11.921 12.1484 11.7831 11.4632 10.7226 10.6129 10.285 9.79735 9.26337 9.11823 8.84325 8.75188 8.72974 8.11646 8.05494 8.01298 8.00957 7.91273 7.80312 7.48682 7.15882 7.01134 6.99005 7.14369 7.93564 8.02285 8.69296 6.8922 6.88581 6.75504 6.66315 6.52372 6.50804 6.32231 6.25948 6.25138 5.94381 5.90522 5.85335 5.62931 5.58169 5.57217
threshold=0 34.500000000000007 1 38.500000000000007 2 3 4 5 2770.5000000000005 6 39.500000000000007 7 8 9 34.500000000000007 3400.5000000000005 34.500000000000007 23.500000000000004 10 2290.5000000000005 11 2100.5000000000005 3560.5000000000005 3912.5000000000005 12 2290.5000000000005 21.500000000000004 3570.5000000000005 13 14 47.500000000000007 52.500000000000007 245.50000000000003 1811.0000000000002 15 3790.5000000000005 36.250000000000007 47.500000000000007 16 41.500000000000007 23.500000000000004 17 213.50000000000003 3130.5000000000005 102.50000000000001 18 19 21.500000000000004 56.500000000000007 20 21 47.500000000000007 3510.5000000000005 32.640625000000007 139.50000000000003 30.500000000000004 36.500000000000007 22 23 24 14.500000000000002 19.351562500000004 38.359375000000007 192.50000000000003 42.500000000000007 25 33.500000000000007 26 3799.5000000000005 183.50000000000003 27 28 28.500000000000004 29 33.500000000000007 118.50000000000001 2690.5000000000005 18.648437500000004 109.50000000000001 30.500000000000004 2940.5000000000005 40.500000000000007 40.500000000000007 2248.5000000000005 30 114.50000000000001 40.500000000000007 32.500000000000007 31 32 164.50000000000003 33
decision_type=9 2 9 2 9 9 9 9 10 9 2 9 9 9 2 8 2 8 9 10 9 10 8 10 9 10 10 8 9 9 2 10 10 10 9 8 10 10 9 2 8 9 10 10 10 9 9 2 10 9 9 2 10 8 8 10 2 9 9 9 8 8 10 10 8 9 10 9 8 10 9 9 8 9 10 10 10 8 8 10 8 2 8 10 1 8 8 10 9 9 8 9
left_child=1 5 -2 8 -3 7 10 9 14 18 17 24 -7 33 21 36 20 32 19 64 43 41 -9 26 -5 -19 85 45 40 70 35 42 44 -12 91 55 37 50 39 84 47 61 62 71 -6 48 66 -11 59 -42 -13 77 56 67 -51 -15 -31 -23 82 69 -40 -4 89 -63 -1 72 -16 68 -49 -20 -18 -10 -59 -74 75 -75 -77 -52 -68 -44 -62 -17 -22 -56 -26 -21 -38 -80 90 -28 -72 -27
right_child=2 4 3 11 6 12 -8 22 16 28 13 15 -14 30 46 81 29 25 27 23 58 57 -24 -25 38 34 31 -29 -30 52 -32 -33 -34 -35 -36 -37 86 -39 60 -41 49 -43 79 -45 -46 -47 -48 53 -50 54 51 -53 -54 -55 83 -57 -58 65 -60 -61 80 63 -64 -65 -66 -67 78 -69 -70 -71 88 -73 73 74 -76 76 -78 -79 87 -81 -82 -83 -84 -85 -86 -87 -88 -89 -90 -91 -92 -93
leaf_value=0.031594437831631475 0.3088996790368102 0.37079727028931037 -0.0072687519726376722 0.059690763744475871 0 0.23257078459947614 0.29535303982202404 0.15708863181273905 -0.018842911286642502 -0.0033288814812885083 0.0261777118542026 -0.0049523447436574672 -0.0049803713375006801 0.12732845729414324 0.011689199738678649 0.0022338688551684759 0.0047382440409222543 0.03532782946193537 0.044352185969374576 0 0.023984971391455608 -0.015877970130454822 0.009984509090597022 0.0054676800064876992 0.011124143734248072 0.088473941205249373 0.0084828680678127981 0.0058002257179442648 -0.0018942997377943331 -0.0042486593027747602 -0.0038796055056561406 0.0097081737903658583 0.029425162852884768 0.19406552575067543 0.012257621505538248 0.021245950455053945 -0.0079295494231203384 0.007683514789871392 0.013123285805428797 0.041250150488279402 0.0025900366739880065 -0.009427073440641455 0 -0.024105067313816054 0.11774494688033532 -0.00357211426476355 -0.00092927607988684273 0.061507399683384166 0.0034276139946400439 -0.0022772524748014469 0.0011609635574096452 -0.0027992704770886181 -0.013482336725024109 0.010246617740809061 0.00721044056402539 0.061848066233127871 0.012032979837936735 -0.0085499673671040801 -0.0074436341487971293 0.064239497549727215 0.0080463691426088859 0.044336767508309088 -0.00041472683628332669 0 -0.0052404110822467445 -0.011957772688666858 -0.0020078356739067823 0.00013232985101719848 -0.0026907056238501333 0.017048838939558227 -0.020810036550579 0.018923671455701851 -0.0043401449224042578 -0.0064484202351412284 -0.0039947734317951613 0.029818909375133169 -0.0023882289788436832 0.080397871003964366 0.052614831222093185 0.043210005933221551 -0.014792123506381675 0.026440273890994279 -0.0097886892849963457 0.06437596200414146 -0.0076163374662707242 0.043513007232902419 0.026092331479480022 0.016259108669994193 0.015985518208327408 0.099482066411077416 -0.01162509800479423 0.035392204221225625
leaf_weight=22.687579309567813 3.5752981971018016 4.4790721917524934 2.0708057474694241 2.6663924133172259 0.88539077289169554 5.0601654303027308 2.849143187631852 10.652712150476869 690.11972039501416 4.43973734503379 2.341230316378641 8.3347660497529432 1.4364190175547262 37.308133863611147 14.751914343039969 20.629835968487896 10.169227733917069 28.724462396465242 52.155759171815589 3.0248794358922195 14.620932681806154 116.88912219423219 2.2389634228311488 5.6561550612677811 13.679312510357706 64.174287541420199 1.7443128393497318 18.035661850299221 62.437067787745036 68.097772044595331 1.171606030082329 4.5338169904425731 6.8981207999167955 30.071595707035158 5.3689986147219306 4.7389305630931622 3.658998740371314 5.8261900558718471 9.9737854199483973 11.132010489061939 41.432262538699433 10.65112553082872 4.2075138795189542 2001.8098719585105 66.94098770909477 3.3851695136399931 20.525781580712646 19.724722526036206 6.3008950513903974 4.0837766713229913 1.3570130347507063 0.93571129551855747 46.122056809283094 10.305497508903498 4.3640007391804838 18.66988919157302 52.647942907991819 62.209799658157863 46.059681825485313 39.419340819236822 8.8478926083771494 19.519138831936292 0.47645132354227726 3.9914458802086292 3.9457265380187883 79.419299309694907 1.84868792828638 2.561065593094102 0.91306640510447223 21.282481499831192 190.16749469086062 0.37210045213578169 50.135437946068123 6.9809442175610448 18.60813974076882 24.986534355673939 7.3905180803849353 71.116304249910172 27.321739076462109 3.9132942965370603 63.199359741003718 15.852746342017779 2.9462486478441852 2.9221019690157846 16.65080134064192 20.587533121695742 6.0220934884855533 11.518466747715136 0.69364225509343569 69.502725249389187 119.45153931327513 11.212179024820214
leaf_count=33597 1241 1034 3779 4549 785 1361 1367 2650 1433028 7458 1723 11941 2623 17050 24760 36299 19820 29114 70588 4039 26612 238360 649 9305 24586 45096 2052 32738 109065 136632 1072 6311 6106 10657 3789 2282 5917 9557 17600 17526 70396 21490 5829 4261609 50992 5593 37425 30729 9906 6487 2320 1504 94082 17540 7406 8891 94447 121930 90081 52237 13313 31708 614 7005 6262 157183 3288 4058 1652 30339 394181 711 97333 13578 36387 47100 14976 99641 44273 5252 119421 26706 5377 4569 30309 27014 9161 18762 1293 83816 242600 8825
internal_value=0.000218027 0.0790614 -0.0144765 -0.0151202 0.124542 0.0494182 0.114772 0.0452563 -0.0181503 0.0409424 0.108189 0.0278005 0.198515 0.140297 -0.00111083 0.0463244 -0.0206572 0.0887184 0.0536093 0.0681738 -0.0222557 -0.00654214 0.141443 0.0766382 0.00334812 0.069875 0.0798925 0.0410165 0.0125753 -0.0114728 0.104612 0.0886973 0.110611 0.186948 0.0794993 0.107008 0.0614058 0.0655768 0.000234241 0.0128997 0.0215292 0.0185898 0.092283 -0.0227524 0.116349 0.0457166 0.026295 0.0376749 0.0472905 0.0114203 0.0689485 0.0690627 -0.00167282 0.0431639 0.032965 0.111943 0.00293588 -0.00925371 -0.000951909 0.0494136 -0.00704953 0.0250997 0.0972552 0.0380314 0.0257952 -0.00505651 0.0308827 0.0533062 0.0582314 0.0380383 -0.0159045 -0.0186827 -0.00108848 0.00317649 0.00896704 0.0171838 0.0227606 0.0792209 0.0425469 0.0283562 -0.0115255 0.0147937 0.0116678 0.0470063 0.00185527 0.0388077 0.0139848 0.0449243 -0.0171815 0.0980477 -0.0175221 0.0831769
internal_weight=4724.82 739.265 3985.56 3981.98 285.834 453.431 281.355 446.934 3722.1 434.043 278.506 259.883 6.49658 94.3014 478.819 133.734 3243.28 184.204 280.859 140.28 2755.93 402.852 12.8917 113.647 126.15 109.48 107.991 140.579 153.183 487.35 61.8886 84.3781 74.7245 32.4128 80.7555 60.717 97.2511 87.57 123.483 41.4621 90.7462 36.2325 79.8443 2692.3 67.8264 122.544 75.9666 37.9441 119.158 52.8021 81.7438 73.409 166.868 33.5044 11.3699 55.978 120.746 366.62 63.6269 112.858 82.021 25.5814 71.7235 23.5106 26.6333 249.731 55.4408 23.1989 20.6378 73.4382 320.482 690.492 170.311 108.102 57.9661 39.358 32.3771 72.4733 40.6889 8.12081 72.0473 36.4826 17.5672 7.2861 30.3301 23.6124 9.68109 38.8402 310.313 71.247 309.619 75.3865
internal_count=8992319 840918 8151401 8150160 188783 652135 187749 648151 7719810 644852 186382 430350 3984 41675 919337 203046 6800473 144707 385492 184091 5817418 790829 3299 144232 227304 86824 134927 201401 259360 983055 29295 103874 57883 12380 57710 28223 140041 124963 222755 72421 150295 63982 97563 5695348 51777 168663 128508 61437 163070 88858 115406 103465 325161 53979 18462 25941 231079 726847 122070 153164 150334 42492 86482 38713 39859 488487 91083 36439 32381 100927 657894 1433739 331304 209374 112041 75654 62076 101961 66323 11081 132734 63005 31989 11975 54895 31053 15078 63035 638074 85868 636781 53921
cat_boundaries=0 1 2 3 4 5 6 7 8 9 10 11 12 13 14 15 16 17 18 19 20 21 22 23 24 25 26 27 28 29 30 31 32 33 34
cat_threshold=2 4 2 1 1 1 112 1472 1 1 1 1 2 69 960 1 5 77 1 197 1 8 42 1064 1 1082 1 2 1 232 41 1 2 1
is_linear=0
shrinkage=0.0287644


Tree=6
num_leaves=93
num_cat=35
split_feature=21 47 35 47 35 27 3 43 27 28 35 27 43 3 47 16 16 43 3 35 19 7 37 47 7 47 46 7 43 47 44 47 40 46 2 43 43 44 43 36 43 43 9 3 43 37 48 43 44 43 46 44 43 43 48 43 42 47 16 43 43 44 15 43 44 43 10 38 44 19 48 39 44 44 46 43 46 47 48 19 48 4 42 48 44 47 48 46 47 47 11 3
split_gain=6292.67 1042.9 737.041 653.275 344.898 305.12 293.911 217.849 137.31 128.742 113.964 112.116 95.7615 95.0324 88.6719 78.7305 74.0977 69.758 62.1103 52.4544 46.1229 38.9766 38.2882 33.6678 33.4511 33.0701 28.9132 26.2246 24.7151 24.3792 23.6449 24.8248 22.4458 21.9263 20.7066 18.8312 18.4602 17.4791 16.6081 16.4033 16.3832 24.7382 16.2692 15.5779 14.6734 14.6473 14.5434 14.1956 13.2104 17.2716 13.0669 12.7251 12.5567 12.1832 10.9544 10.7718 11.1555 10.734 10.621 10.5164 10.4206 9.83962 9.25975 9.10723 9.00004 8.83347 8.82141 8.74081 8.52608 8.44043 7.97594 7.90252 7.79924 7.33782 7.17784 7.10649 9.6057 7.0297 6.97602 6.8357 6.72267 6.6627 6.53845 6.3546 6.32561 6.30086 6.25089 6.22236 6.14617 5.8418 5.50326 5.33936
threshold=0 36.500000000000007 1 36.500000000000007 2 3 4 2863.5000000000005 5 6 7 8 2881.5000000000005 9 41.500000000000007 10 11 2450.5000000000005 12 13 14 15 16 31.500000000000004 17 33.500000000000007 17.953125000000004 18 3450.5000000000005 30.500000000000004 199.50000000000003 37.500000000000007 19 34.250000000000007 20 3515.5000000000005 4082.5000000000005 226.50000000000003 2100.5000000000005 21 3560.5000000000005 2290.5000000000005 22 23 3650.5000000000005 24 18.500000000000004 1359.0000000000002 155.50000000000003 3950.5000000000005 22.851562500000004 279.50000000000006 3150.5000000000005 3930.5000000000005 58.500000000000007 3685.5000000000005 2022.5000000000002 31.500000000000004 25 1545.5000000000002 3629.5000000000005 166.50000000000003 26 2430.5000000000005 101.50000000000001 2730.5000000000005 27 28 295.50000000000006 29 45.500000000000007 30 114.50000000000001 245.50000000000003 17.750000000000004 2700.5000000000005 36.250000000000007 22.500000000000004 28.500000000000004 31 38.500000000000007 32 2020.5000000000002 34.500000000000007 132.50000000000003 47.500000000000007 22.500000000000004 19.750000000000004 39.500000000000007 32.500000000000007 33 34
decision_type=9 2 9 2 9 9 9 8 9 9 9 9 10 9 2 9 9 10 9 9 9 9 9 2 9 2 8 9 8 2 10 2 9 8 9 8 8 8 8 1 8 10 9 9 8 9 8 10 10 8 8 10 10 8 8 10 2 2 9 10 8 8 9 10 8 8 9 9 10 9 10 9 8 10 8 8 10 2 8 9 10 9 2 8 8 2 8 8 2 2 9 9
left_child=1 4 -2 10 6 -3 15 22 13 -6 -4 -12 25 23 18 26 17 47 32 21 43 -18 30 27 29 38 -1 -8 73 37 31 84 82 35 40 -34 42 60 71 67 41 59 -28 55 64 75 -44 -7 58 -50 -43 81 57 72 88 56 -14 -22 -16 61 80 77 -33 66 -25 -32 -49 -20 70 -40 90 -13 -31 86 -64 76 87 -15 -76 -41 -17 -48 -9 -63 -5 -80 -29 -27 -23 -45 -66 -71
right_child=2 5 3 7 9 16 8 14 -10 -11 11 12 20 34 48 24 19 -19 39 -21 52 54 -24 44 -26 45 36 28 -30 53 65 62 33 -35 -36 -37 -38 -39 69 79 -42 50 46 89 -46 -47 51 63 49 -51 -52 -53 -54 -55 -56 -57 -58 -59 -60 -61 -62 83 74 -65 68 -67 -68 -69 -70 91 -72 -73 -74 -75 78 -77 -78 -79 85 -81 -82 -83 -84 -85 -86 -87 -88 -89 -90 -91 -92 -93
leaf_value=-0.00049276109273080826 0.23718989994291628 0.31737024836770839 0.12169593837886145 0 0.23381809763493744 0.0010138976183520555 0.003223282342407706 0.01131789113570212 0.11818106992851296 -0.0063600662204139555 0.11427319702567341 0.014463771247854069 0.044846123420643237 -0.00022688614282014187 0.031091184302636667 0.056610539678962818 0.096196238232796355 0.16225480427053554 -0.0046068849309794111 0.20694821064922364 -0.020766580741026212 0.019505481114830733 -0.0030005266717113457 -0.0028878594153521541 0.0080539299627855644 -0.0054451679482324959 0.020873896191064566 0.013089143585471251 0.0081260161315224125 0.002258514649405323 0.030239816214051227 -0.001605884079066294 0.054608573322427578 -0.00078949927694255964 -0.0077361818296025212 0.0052378393204266099 0.0010564016588152597 -0.0061461195677330058 0.0067894655811532815 0.01259069184702773 -0.0061167445573700272 0.0060395968309993053 -0.00071380020382401984 -0.014405712923285626 0.01447877581621154 -0.0088830254487193543 0.0072902462055480094 0.088921790585436311 0.05868629930669484 -0.0033433662036656841 0.047469556266210099 0 -0.02360565452197742 0.0034816015610522797 -0.00050761369952035502 -0.0089219046466058587 -0.0014805320781319201 -0.011504359546416874 -0.0013106150399050511 -0.0011783383019043784 -0.00086511959889580992 -0.01116486881467185 -0.00070514318285878788 0 0.0031063298004170761 -0.009109478342011439 0 0.015563477066160226 -0.002539217726391423 -0.018817951487465612 0.0038051669878704075 -0.0073214217702961895 0.10079157565752593 0.0026969043921803459 0 0.0016783677111664155 -0.011348355202582408 0.036495512725806811 0.083641878150357951 -0.015269791145194386 -0.0025740262777108783 0.12813805153406674 -0.0045734345222617169 0.017021813588524809 0.035925442438972707 -0.00023479326912989847 0.047463871517422838 0.029155150973726455 0.063857963658603925 0.0080386887247791555 0.068701232899185949 -0.010024831297717252
leaf_weight=1.5067538292496454 5.1099301157519221 3.791297514224425 0.2757978625013493 5.1334988374146659 7.20381648885086 2.350124653195965 22.546928651165217 39.320122113043908 11.537390694022177 1.802675202838145 0.72603115404490381 18.151949431630783 11.148993414943112 4.4731639986275722 16.671205675869714 21.112547971890319 114.90452560194535 61.567820235912222 29.429470554779982 1.8326654110569496 461.9952312608948 11.028779936430515 16.644806849886663 0.95420524914516036 10.405008304456713 2.7878818728204342 3.653863662853837 9.9846688638790493 22.847070159972645 1.148410975758458 8.6921283221454324 0.69572498608613387 27.595128178363666 10.819739104481412 33.225949758605566 9.9531725369743054 1.3774384569842357 4.2834370571654281 13.36515606532339 3.9030375218135305 19.501504192710854 10.443848274124319 0.52967980259563674 33.364415270800237 9.5174627315718663 28.756821745802881 1.153986961056944 19.933142270718232 24.781336831278171 3.3141745732864356 28.337387696199585 0.7688322282047001 2108.5107467742637 1.8249746990040865 3.5391565849422468 4.0685003076796411 4.8864960998180313 168.54287196852965 12.157017507357525 36.042805354343727 2.617745157389435 10.061018252687065 0.52833033876959135 1.0416491308133107 1.8999165401910432 4.1497822095989259 0.97518016822869924 18.639981444255682 0.88151896611088787 178.78367917065043 2.6439641934121019 13.541604927333539 21.02713260659948 4.7247044233954503 0.9144462407566597 26.756401655875379 3.6145566518243859 18.441472733393312 53.326201221439987 159.28733805302181 0.88842557504540209 58.547018996963743 36.983226400916465 7.4831850860500699 11.531634483893866 0.44501500489422952 95.864020488166716 32.770531253510853 11.649986122443805 8.8518981786910427 66.908781328180339 305.94079837223398
leaf_count=1937 1308 643 490 8630 1576 2200 35421 68758 2473 2890 838 29647 20116 7954 25785 23020 60216 23068 56955 581 982942 8116 25192 1243 14804 5096 3580 14217 36017 1226 13030 917 45008 19132 53813 18587 2211 5769 25826 6607 32618 14698 671 65766 12577 56222 1231 10622 35493 5742 39697 1065 4585549 2771 2079 7336 8796 349665 19469 57957 4511 17249 953 370 2756 6524 1016 35707 1309 369077 2929 25239 20959 7194 1302 53049 6038 29156 70346 320576 966 59171 64447 12024 18706 752 124082 52785 5449 17590 73018 618658
internal_value=0.000736041 0.0745276 -0.0141897 -0.0147934 0.052441 0.125464 0.0484129 0.0159754 0.0331541 0.198838 -0.0192557 -0.019431 -0.0196135 0.0302461 0.00597332 0.0855981 0.116139 0.143027 0.000125421 0.0960158 -0.0218895 0.0881078 0.0524775 0.041406 0.060731 -0.00930076 0.115345 0.033248 0.0379652 0.0694374 0.0570188 0.0697515 0.0152608 0.0289032 0.0106321 0.0437698 0.118015 0.0401528 -0.0120936 -0.00916767 0.0155502 0.0207031 0.120107 0.00225581 0.0588599 0.00604681 0.12402 0.0760755 0.0377432 0.0515638 0.0383787 0.125266 -0.0224459 0.0923268 0.0433358 0.0170108 0.0329449 -0.0184088 0.0187548 0.00995546 0.0483112 0.0192533 0.0793119 0.082125 0.0632961 0.017794 0.0855393 0.00482535 0.0644393 -0.0133877 0.0655209 0.0070545 0.0973727 0.0434675 0.0805708 0.0123801 0.0213252 0.0300479 0.0815465 -0.0134125 0.0537504 0.126662 0.0032453 0.00135564 0.0270376 0.0827837 0.0449966 0.0258434 0.0495517 -0.00751918 0.0673523 -0.0140255
internal_weight=4717.65 790.787 3926.87 3921.76 558.173 232.614 549.166 494.917 418.321 9.00649 3426.84 3426.56 3425.84 406.784 392.855 130.845 228.823 85.8679 335.931 142.955 2801.37 141.122 102.062 238.773 63.3077 624.469 67.5376 155.967 133.42 52.9027 85.4168 72.5749 124.671 48.368 168.01 37.5483 66.0308 28.9022 529.783 211.26 134.784 115.283 64.6534 62.3203 82.8058 94.6862 60.9995 24.3001 56.9237 28.0955 38.7812 60.4698 2739.05 24.0005 26.2179 20.104 16.0355 630.538 28.8282 76.5016 24.6187 40.4588 55.9097 21.95 73.2884 12.8419 20.9083 48.0695 72.3342 498.09 71.4527 31.6936 22.1755 110.573 55.214 65.9294 39.173 22.9146 54.6857 163.19 22.001 59.701 76.3033 17.5442 16.6651 53.7712 105.849 35.5584 22.6788 42.2163 68.8087 484.724
internal_count=8991771 841120 8150651 8149343 726760 114360 722294 868618 578402 4466 7280725 7280235 7279397 575929 722266 143892 113717 37276 635777 76441 6037760 75860 146352 310763 74026 1241637 69866 216931 181510 59222 121160 101606 215932 82727 265166 63595 67929 34266 1068447 419845 211353 178735 65718 119604 93832 173190 62138 14208 86489 41235 54395 61467 5918156 24956 15644 36248 28912 1332607 45254 124340 28497 66383 74270 12008 81255 19554 11638 92662 80012 1013561 78703 54886 22185 145493 73353 116968 63919 37110 72400 327183 23986 60402 133205 29273 27336 71098 138299 57881 13565 83356 75774 987735
cat_boundaries=0 1 2 3 4 5 6 7 8 9 10 11 12 13 14 15 16 17 18 19 20 21 22 23 24 25 26 27 28 29 30 31 32 33 34 35
cat_threshold=2 4 1 2 32 1 1 2 2 592 1 1 52 1 2 1 71 1 2 2 124 7 2 48 197 1 4 1 30 2 73 2 2 1 960
is_linear=0
shrinkage=0.0287644


Tree=7
num_leaves=93
num_cat=33
split_feature=21 47 47 35 32 35 3 27 43 3 47 3 28 19 47 47 45 3 7 43 43 43 19 43 43 27 46 45 37 2 47 40 46 43 43 43 45 16 46 37 43 43 12 43 37 43 45 43 36 45 45 45 45 46 4 9 6 47 48 46 45 45 46 15 27 45 46 19 46 42 45 48 38 48 48 16 48 7 48 47 0 46 46 39 45 43 48 43 48 46 43 42
split_gain=5655.89 791.277 670.369 394.544 275.784 274.147 246.775 243.526 165.042 127.651 110.402 97.175 96.5595 93.9462 69.1098 58.3163 50.9248 47.0574 42.2072 39.6107 37.5884 36.005 29.5224 28.5025 25.6901 22.9568 22.2019 21.2668 20.5554 19.5092 17.5397 17.2037 20.2825 15.2582 15.2269 22.0612 16.7513 16.0104 15.0955 14.6345 16.9936 14.63 14.1831 14.7268 13.8823 15.2088 13.4623 12.3656 12.073 11.3495 10.8038 10.7419 10.6648 10.49 10.1099 11.5887 10.007 10.0044 9.96153 9.90936 9.46588 9.25369 8.81275 8.54641 8.40888 8.21133 7.93041 7.79096 7.76888 7.76124 7.71573 7.4635 7.37599 7.04112 6.96632 6.85673 6.82008 6.70174 8.90045 6.62888 6.54368 6.35367 7.57146 6.45435 7.19185 6.27548 6.14919 6.11147 6.0825 6.07152 5.91178 5.81791
threshold=0 36.500000000000007 37.500000000000007 1 2 3 4 5 2863.5000000000005 6 32.500000000000007 7 8 9 41.500000000000007 33.500000000000007 32.500000000000007 10 11 3600.5000000000005 2948.5000000000005 3459.5000000000005 12 2660.5000000000005 3628.5000000000005 13 43.750000000000007 33.500000000000007 14 15 34.500000000000007 16 36.046875000000007 3259.5000000000005 3560.5000000000005 2290.5000000000005 22.500000000000004 17 17.953125000000004 18 2100.5000000000005 3550.5000000000005 19 3599.5000000000005 20 3350.5000000000005 58.500000000000007 3590.5000000000005 21 46.500000000000007 54.500000000000007 27.500000000000004 30.500000000000004 21.953125000000004 22 23 24 35.500000000000007 22.500000000000004 42.640625000000007 49.500000000000007 29.500000000000004 40.140625000000007 25 26 25.500000000000004 40.140625000000007 27 38.750000000000007 2017.5000000000002 14.500000000000002 36.500000000000007 28 33.500000000000007 41.500000000000007 29 29.500000000000004 30 47.500000000000007 24.500000000000004 31 31.851562500000004 19.953125000000004 32 34.500000000000007 3160.5000000000005 32.500000000000007 2993.5000000000005 46.500000000000007 20.453125000000004 3300.5000000000005 2022.5000000000002
decision_type=9 2 2 9 9 9 9 9 10 9 2 9 9 9 2 2 10 9 9 8 10 8 9 8 8 9 10 8 9 9 2 9 8 8 8 10 10 9 8 9 10 10 9 10 9 8 10 8 1 10 10 10 10 8 9 9 9 2 10 10 10 8 8 9 9 8 10 9 10 2 10 8 9 8 10 9 8 9 10 2 9 8 10 9 8 8 8 10 10 8 8 2
left_child=1 5 3 9 -5 6 10 -3 28 30 18 24 -7 47 17 20 42 31 85 22 39 38 49 51 -9 29 50 75 59 34 64 -10 41 65 35 37 58 61 -12 -15 73 87 -13 -44 45 70 -40 66 -19 56 54 57 71 -54 55 74 -20 -17 -37 60 63 62 79 -4 67 -32 -11 -2 -58 81 -25 -21 -72 -41 -24 89 -65 78 -18 -8 -22 82 -42 -84 -85 -1 -38 -33 -78 -16 -74 -75
right_child=2 7 8 4 -6 12 25 11 14 13 21 16 -14 15 27 23 77 48 19 52 80 -23 26 44 -26 -27 -28 -29 -30 -31 33 32 -34 -35 -36 36 86 -39 46 40 69 -43 43 -45 -46 -47 -48 -49 -50 -51 -52 -53 53 -55 -56 -57 68 -59 -60 -61 -62 -63 -64 76 -66 -67 -68 -69 -70 -71 72 -73 90 91 -76 -77 88 -79 -80 -81 -82 -83 83 84 -86 -87 -88 -89 -90 -91 -92 -93
leaf_value=0.022998204928084246 -0.0095302786063325116 0.26773050281615729 -0.0019122721416531998 0.21701562400634658 -0.015487421691617613 0.19759952266119507 0.0016939837708869099 0.16024388208224322 0.0044635686576616814 0.041806832888865067 -0.0026052632980181206 0.0094402677002377883 -0.0063195197888716494 -0.016221280858209723 0 0.0084040490322768134 0.047198987824292091 0.0062697069142677057 0.004984799327673213 0.039882169573441595 0.0040667657242613739 0.036580847891431678 0.087340132323844744 0.023136444214211949 0.081002256229729924 0.059877976776377115 -0.0034993640111964873 0.008470847086614176 -0.0016841810329082474 -0.007622766616328022 0.0040559831757116189 0.010253826178735636 -0.0041034680792588962 -0.019946815397965261 -0.0060040595672268332 0.0022490528737510928 0.027572815202386573 -0.0085586795298327051 0.095152413492405816 0.0024835271523101251 -0.012581189642760447 0.0060642106064563864 0.08614567538231678 0.022104825972865005 -0.016056908881496901 -0.010448969351169912 0.0078157484771568947 -0.0035737707669294535 -0.01103276074859609 0.014289054381292719 0.006520866171572038 0.0014825395326502871 0.027977755168308787 -0.013539421449667584 0 0.01656851067350569 0.05227102716859381 0.045255364152510046 0.067435909407328812 0 0.0073941894972071849 0 -0.0076394747302027293 0.00060475459562818283 0.019061167815791393 -0.012676952895433148 -0.0018193165189071816 -0.02407996314190548 0.011399080355438572 -0.0087877300256312338 0.011495332082060033 -0.0026512620388593586 -0.008888106430513713 0.044328988826914245 0.0016677154168214007 0.02403016517399887 0.078697853713961916 0.0086629018811479504 0 0.036044826275130254 -0.020429322496492191 -0.013466369512026399 -0.0048808766863639042 0.031693504220081166 0 -0.0012725450127222854 0.00020905153365589178 0.065429318135557149 0.026087266745002117 0.06397395529732372 0.017719175386978082 -0.0039939135428421852
leaf_weight=29.980875841341913 41.699595577141736 5.1818085107952356 0.75526290942798369 5.5491467527754121 6.1492095876601525 9.0781028066994605 6.917254115222021 75.807236018648837 53.938567987148417 28.938855075830364 0.89490805548848484 3.8446639458998106 1.7912660487927485 115.90462914004456 1.6337439946946712 14.908100617933089 31.460392160981428 37.282696957205189 5.8001785422675312 10.186743841448333 6.9671038273954764 21.045881016296335 53.46027202665573 16.596326162893092 20.383733761380427 4.26660705031827 2.2238930421299292 17.961048014869448 13.007227067544589 32.970234081149101 41.135662904940546 4.4074057529214832 5.8868612800724796 184.17572309452225 19.382738170213997 3.0041817766614249 13.400795597000981 23.825788330112118 87.395671437145211 12.147940571740039 7.7867279213969587 7.1330879143206394 102.8180941308965 7.4035916561842887 46.38287595633301 59.711966215429129 2.6440794998779884 5.6682050928357048 103.69763529155171 14.252501855895387 2.9070594654767765 19.352660157397622 2.631026873015796 12.329680233902764 1.1607037055655371 5.0649411020567632 125.73978870775318 12.615945819008628 11.353907658893148 1.8703702558996145 3.5235089244379187 17.613681585644372 3.5467613055370739 1.4680782565847028 0.35792992892675002 47.16095369993127 2.871005645254626 1930.0546222804405 7.7306185453198841 189.62662370217731 28.418279842357151 3.1058548617293136 41.652724267420126 5.358047954767243 1.2583539631450538 17.870821947988588 54.915641952655278 9.3838602692121622 3.268234940711408 25.256010142387822 570.66545830180985 10.377196069981435 11.879650295100873 17.412751980999023 8.7440788501698972 10.041081857285461 12.460854398610534 18.714895086421166 8.6430652274866571 21.559783948061522 3.5921125983295488 1.1989683924766721
leaf_count=43690 83010 643 990 1545 12058 1576 11836 28151 91383 51369 1091 4833 2890 243867 2574 25497 15496 71569 7267 15672 15443 22617 55854 32324 8950 812 3010 28562 18635 53813 82131 6600 10251 396091 32618 4242 19704 39225 79360 19494 15935 12875 46233 2952 94183 127030 3221 10184 207321 18287 3730 32202 3942 19651 1572 5646 139997 19658 14368 3047 5470 29966 5966 2031 380 95867 5170 4260102 10172 386598 56319 4836 82124 8447 1312 25731 67438 5541 1561 37347 1263334 21428 24249 35031 17953 15389 16081 28158 10171 29543 7389 1890
internal_value=0.000759991 0.0680099 -0.013973 -0.0178961 0.123861 0.0487779 0.0451156 0.109713 0.0224075 -0.0185357 0.0570802 0.101824 0.171261 -0.0107403 0.0116514 -0.0122724 0.0662845 0.00420078 0.0475568 0.0520272 -0.0154524 0.0835628 0.0561826 0.000259813 0.134599 0.0128859 0.0747379 0.0382578 0.0568547 0.0108525 -0.0226539 0.0188243 0.0326022 -0.0152854 0.0149703 0.0198516 0.0362188 0.00964332 0.092064 -0.00823561 -0.00373757 0.0490565 0.0810615 0.0829873 -0.00458885 0.000270942 0.0932077 0.0315658 -0.00622396 0.046211 0.0776843 0.0194116 0.0160759 -0.000837669 0.0802155 0.0817357 0.0488441 0.0296647 0.0582217 0.0595266 0.0690469 0.0180093 0.0256225 0.071495 -0.0237434 -0.00493837 0.0378129 -0.0238007 0.0504397 -0.00603697 0.00767453 0.031142 0.00290424 0.0196598 0.0858444 0.0488961 0.0725839 0.0374743 0.043066 0.0300965 -0.0200845 0.00301592 0.00785488 0.0132051 0.0172694 0.0171371 0.0167665 0.058734 0.0739247 0.0605825 -0.00426532 0.0364204
internal_weight=4713.6 844.274 3869.33 3495.06 11.6984 584.722 573.853 259.552 374.27 3483.36 399.854 254.37 10.8694 1238.78 290.087 1201.3 158.179 231.061 287.874 247.852 958.069 111.981 219.598 243.231 96.191 173.999 66.0752 59.0254 84.1832 169.732 2244.58 90.0808 36.1423 272.472 136.762 117.379 40.2197 77.1595 90.9347 380.437 264.532 30.2554 114.066 110.222 196.354 149.971 90.0398 37.4781 140.98 153.523 63.8513 46.8767 28.2533 14.9607 60.9443 59.7836 139.271 27.524 14.3581 71.1759 69.3056 53.3337 35.72 65.782 1972.11 88.2966 31.8099 1971.75 133.47 245.827 90.2594 13.2926 73.6631 18.705 54.7186 41.0643 65.0268 44.1125 34.7286 32.1733 577.633 56.2004 45.8232 38.0365 26.1568 40.022 25.8616 23.1223 63.5587 23.1935 45.2448 6.55702
internal_count=8991771 841120 8150651 7528302 13603 726760 722294 114360 622349 7514699 456316 113717 4466 2597118 514567 2530395 76616 428157 350027 290948 2053669 106289 246847 476726 37101 265978 71124 86410 107782 265166 4917581 149267 57884 574089 211353 178735 54395 124340 83672 774892 531025 47633 54018 49185 399369 305186 82581 66723 278890 175723 68114 77357 44101 23593 64384 62812 157436 45155 18610 89147 86100 85115 55149 80630 4343492 177998 56539 4343112 150169 501194 178156 20508 145832 29831 57166 57848 79640 22598 17057 49183 1278777 114596 93168 77233 52984 59079 35785 34758 77609 32117 89513 10337
cat_boundaries=0 1 2 3 4 5 6 7 8 9 10 11 12 13 14 15 16 17 18 19 20 21 22 23 24 25 26 27 28 29 30 31 32 33
cat_threshold=2 1 1 1 624 2 960 96 1 2 52 2 1 1 71 124 2 2 42 2 101 21 1 1 2 4 1 2 90 1 1 2 352
is_linear=0
shrinkage=0.0287644


Tree=8
num_leaves=93
num_cat=31
split_feature=21 47 47 27 35 35 32 3 43 3 3 19 16 47 47 16 47 3 43 46 37 45 45 43 43 37 43 43 43 16 47 47 39 47 46 43 45 43 43 43 37 43 47 37 43 46 11 9 4 43 46 46 46 46 43 47 45 44 46 43 45 48 11 19 45 47 47 46 27 43 45 19 42 10 7 44 46 43 36 46 13 48 46 0 45 43 38 44 46 45 42 46
split_gain=5097.48 641.663 614.556 364.026 361.23 293.916 222.299 218.216 148.171 127.1 114.421 88.3609 66.0458 56.8326 56.7854 52.2887 46.6745 42.4956 37.0374 35.243 34.7978 34.7473 33.3137 27.2207 26.9202 24.3066 23.006 20.8115 20.3915 19.7019 30.207 17.6401 17.629 16.5834 16.0837 17.1414 16.0371 15.2292 19.4679 14.9947 14.314 16.2711 14.0067 13.5683 14.6654 13.4787 13.3204 13.3118 22.6716 13.917 12.8695 12.6594 12.5809 12.51 12.4218 11.7498 11.7757 11.628 11.3424 11.248 9.88761 9.65642 9.43323 9.40973 9.22474 8.92195 8.70677 8.55746 8.35715 8.14185 7.88811 7.80408 7.37 7.27278 7.23158 7.12869 7.61106 7.10366 6.92042 6.90569 7.92782 6.56059 6.55565 6.42605 6.4147 7.04604 6.81806 6.40249 8.22284 6.98638 6.31239 6.21354
threshold=0 37.500000000000007 33.500000000000007 1 2 3 4 5 3090.5000000000005 6 7 8 9 40.500000000000007 33.500000000000007 10 41.500000000000007 11 2948.5000000000005 19.546875000000004 12 32.500000000000007 39.500000000000007 4082.5000000000005 2660.5000000000005 13 3120.5000000000005 2290.5000000000005 3610.5000000000005 14 40.500000000000007 34.500000000000007 15 41.500000000000007 44.953125000000007 3520.5000000000005 42.500000000000007 3486.5000000000005 2409.5000000000005 3259.5000000000005 16 2100.5000000000005 47.500000000000007 17 3530.5000000000005 37.453125000000007 18 19 20 3544.5000000000005 38.359375000000007 17.750000000000004 19.148437500000004 26.453125000000004 2807.5000000000005 46.500000000000007 27.500000000000004 181.50000000000003 24.046875000000004 3685.5000000000005 27.500000000000004 25.500000000000004 21 22 40.500000000000007 35.500000000000007 30.500000000000004 20.546875000000004 23 4040.5000000000005 25.500000000000004 24 2017.5000000000002 25 26 139.50000000000003 35.453125000000007 3560.5000000000005 27 35.750000000000007 28 33.500000000000007 28.148437500000004 29 14.500000000000002 3190.5000000000005 30 119.50000000000001 31.851562500000004 33.500000000000007 2019.5000000000002 35.750000000000007
decision_type=9 2 2 9 9 9 9 9 10 9 9 9 9 2 2 9 2 9 10 8 9 10 10 8 8 9 8 10 8 9 2 2 9 2 8 8 8 8 10 8 9 10 2 9 8 10 9 9 9 10 10 8 8 10 10 2 8 8 8 8 10 10 9 9 10 2 2 10 9 10 8 9 2 9 9 10 10 10 1 10 9 8 10 9 10 10 9 10 8 8 2 8
left_child=2 4 10 -4 9 7 -6 12 16 31 15 59 19 20 18 22 25 29 40 -5 -9 46 26 27 60 45 91 36 -14 30 57 68 37 63 35 73 74 38 82 70 -13 81 52 44 84 54 -22 48 49 -48 51 -29 -18 -35 -3 56 -15 -10 -24 66 65 -28 -53 -19 67 -16 75 -56 71 79 -33 -2 87 -21 -17 -11 -77 -37 -27 80 -32 -42 -12 -20 85 -26 -86 -43 89 -89 -31 -1
right_child=1 8 3 5 6 -7 -8 13 17 11 32 14 28 55 24 23 42 33 83 34 21 -23 58 -25 43 78 61 50 -30 90 69 39 -34 53 -36 77 -38 -39 -40 -41 41 72 -44 -45 -46 -47 47 -49 -50 -51 -52 62 -54 -55 64 -57 -58 -59 -60 -61 -62 -63 -64 -65 -66 -67 -68 -69 -70 -71 -72 -73 -74 -75 -76 76 -78 -79 -80 -81 -82 -83 -84 -85 86 -87 -88 88 -90 -91 -92 -93
leaf_value=0.055599901326280142 -0.0093642081672422311 0.060156592979243105 0.22957218113421518 0.01556872992814245 0.18833517339370925 0.24113797770466205 -0.015368680505877346 0.0098872578892141884 0.023337268832539927 -0.0043036922190415917 0.023196677018454102 -0.016039113372723936 0.093482047847861446 0.096510023388809915 0.0081650434322529317 0.045526759261747922 -0.0030506350508886283 0.023891983625031574 0.0039858792282595513 0.015147089801650245 -5.8495976480799202e-05 0.025667266731435056 0.02769965495025687 -0.0074513528611255854 0.028712567058042801 0.013581135185683687 -0.0032289424884253078 0.00040770374491184719 0.039827557137013386 0.017661797648477418 0.083272053677230673 0.0039362713443974609 -0.00012873080828066567 -0.0042754776006185052 0.023971086695119298 0.00083864566125908628 -0.0094790688476648986 -0.0015178940766429122 0.04946898032150851 -0.019773152349614038 0.0024270282395953313 -0.012170217965091336 -0.0038617688720431016 -0.01590068504670341 -0.014011616612625517 -0.00056252312534416289 0.074828952682636465 0.022266853185487573 -0.002360316918104731 0.015193699287211978 0.018013271387376396 -0.0023232228631026521 0.078952960288592333 0.030867444354736789 -0.0018964704438153288 0.0018777129394197474 0.04687519638174787 -0.008850383255587355 -0.0019973338552706919 -0.0063264600745861783 0.0014462174275195149 0.027239708905800183 0.072118274839917146 -0.010350076619658624 -0.0041920916899490417 0.042818566274374359 0.051139972181508661 0.03849606967091207 0.018993878029437999 -0.0026460503877244789 -0.012489754712473988 -0.023965543859122279 -0.0086154804840395637 0.16236966850257151 0.0010548126014865292 0.035950957810446084 -0.0041226883128474851 0.07954802652643235 -0.0057102055867767941 0 0.018299995451099192 0.035050666762791963 0.00099598141978449596 -0.02025830057105063 0.0097470151432228792 -0.0022678263563092947 -0.0041887443563604233 0.022405641037818388 -0.011826846276488666 -0.002425489308427843 -0.0027671383014628479 0.024371687277856872
leaf_weight=69.813917874882463 41.304467880545417 36.584148472116794 11.395932073704898 3.3312969318940295 6.8783994020777737 5.8201505034812717 6.0548220768687315 49.497752875497099 26.448186893539969 7.1472339181927991 28.741688851790968 114.04141904617427 68.868841702060308 31.061937176564243 15.033765776082875 22.226749430934433 0.98894462938187544 2.6404072135919705 6.9954694913176354 1.4468940456863493 2.4169242267962545 42.001432635821402 12.848659276729448 3.4751581437303676 13.046496292925442 14.078725153027333 10.028030825080348 2.4930038533057077 18.152056252409238 17.227082587953191 9.366597922169607 41.302677308471175 56.678563587716781 13.002392841095572 3.1706801376421927 1.4171748633962149 4.3134733716724432 15.446402053232303 21.981746085337363 180.54172273282893 12.178109860193219 12.677879681286866 1.1686188046005543 45.644779032532824 38.200102634291397 4.5799659293552386 72.102930798835587 12.437582017679231 3.0178346512257113 6.6679256678908123 8.4555128543870506 0.83684901212109253 32.081000264151953 13.374988239025695 3.9619208531221402 2.1540412066970012 23.626286124694161 9.8103248280822282 24.387921814399306 4.3560156142921178 19.381337270693621 24.797965558362193 129.46826556959422 110.8716892968223 4.7543779690167858 13.199203501164446 13.873272173135772 25.454058264906053 0.36480468703666602 0.90373688581166689 46.567453671537805 1884.174738367059 187.96915376221295 46.784813511942048 4.2687332950299668 9.7480928987497446 3.5620622427959452 14.614039033825973 21.552164906577673 1.6270931065082539 5.9348481298075066 6.7947781524271695 18.774025478516705 559.13564563717227 35.593531764519867 7.3364004353934424 55.586997732520103 23.079711109458003 8.9357852368266304 11.773443007288732 25.253373043931788 18.805885572044645
leaf_count=76746 83010 43121 1291 1598 1545 1632 12058 37093 44536 12451 44958 243867 33319 9640 25497 26671 1380 4402 15443 1106 3151 32278 16443 5918 24469 20444 13519 3021 12022 28171 12550 82131 95269 22198 1585 610 5961 26120 28949 396091 19494 26087 1893 94183 82891 7757 48180 8206 2038 4570 10325 843 33865 19707 6743 1409 8029 17081 33745 7917 32202 31808 127529 223212 7940 19658 23070 40793 380 1542 95867 4260102 386598 18328 6116 16905 6380 6916 33457 2217 8007 10337 30641 1263334 70794 15011 112021 45626 18691 24192 41333 23537
internal_value=0.000768601 -0.013759 0.062257 0.0876391 -0.0176979 0.08118 0.113043 0.0761855 0.0214267 -0.0183445 0.0393108 -0.010544 0.105055 0.049771 -0.0120687 0.048137 0.0438531 0.00704188 -0.0152486 0.136995 0.0421153 0.0487666 0.0356457 0.0609962 0.000284234 0.0322647 0.0427079 0.0626001 0.08494 0.0201849 0.0331077 -0.0225141 0.0132361 -0.00345728 0.141476 0.145145 0.0323605 0.0209872 0.0287685 -0.0150845 -0.00807491 -0.00363634 0.0729567 -0.00447434 0.000307707 0.0394367 0.0619131 0.0635504 0.0681964 0.0710207 0.0679062 0.0702997 0.076119 0.0150788 0.0472973 0.0780554 0.0804863 0.0143273 0.00986278 0.0298776 0.0187295 0.0188084 0.0714919 -0.00856921 0.027802 0.0283994 0.0349727 0.0331854 -0.0236224 0.0601414 -0.00482827 -0.0236811 -0.00590983 0.159852 0.0399365 0.0162633 0.0262493 0.0748731 0.003406 0.063887 0.0685903 0.0191073 0.0154982 -0.0199091 0.00569271 0.0187088 0.00191411 0.00287698 0.00820651 0.0144075 0.00617282 0.0506045
internal_weight=4711.97 3814.14 897.829 419.987 3432.48 408.591 12.9332 402.77 381.665 3419.55 477.843 1225.29 157.786 244.985 1186.6 336.22 145.204 236.461 943.581 70.7649 188.142 138.645 160.682 175.538 243.023 110.965 123.446 172.063 87.0209 96.5712 54.0908 2194.26 141.622 139.889 67.4336 64.2629 30.809 84.9439 69.4975 268.412 377.45 263.409 34.2386 195.408 149.764 75.3345 96.6432 94.2263 81.7887 78.7709 141.254 132.798 33.0699 26.3774 70.7545 56.8423 54.6882 36.2585 37.2366 38.6867 47.6143 34.826 130.305 113.512 34.1704 28.233 34.3307 29.416 1925.84 17.8323 87.8701 1925.48 244.436 48.2317 26.4955 20.4574 13.3102 16.0312 35.6309 16.9285 15.3014 18.9729 47.5157 566.131 111.563 20.3829 91.1805 56.4668 43.7889 34.8532 42.4805 88.6198
internal_count=8991771 8150651 841120 233001 7528302 231710 13603 230078 622349 7514699 608119 2597118 75484 154594 2530395 382182 197393 424956 2053669 30143 135516 98423 195798 186384 476726 160255 145610 180466 45341 155437 85933 4917581 225937 269519 28545 26960 38748 130668 104548 574089 774892 531025 37138 399369 305186 106354 66145 62994 54788 52750 141718 131393 35245 41905 98597 19078 17669 61617 50188 66723 77357 45327 128372 227614 55476 45155 58806 47536 4343492 24316 177998 4343112 501194 19434 32787 35736 23285 7526 53901 22774 20557 29831 75599 1278777 222295 39480 182815 114596 88509 69818 69504 100283
cat_boundaries=0 1 2 3 4 5 6 7 8 9 10 11 12 13 14 15 16 17 18 19 20 21 22 23 24 25 26 27 28 29 30 31
cat_threshold=2 2 1 1 1 96 960 624 2 1 2 564 138 65 1 321 42 101 1 1 1 2 2 1 2 2 1 15 1 2 90
is_linear=0
shrinkage=0.0287644


Tree=9
num_leaves=93
num_cat=28
split_feature=21 35 47 35 47 33 33 27 36 19 3 43 3 47 37 7 19 43 43 19 36 43 47 37 45 19 43 9 47 3 20 46 4 37 45 19 44 48 43 45 43 43 45 20 46 27 46 43 3 43 43 45 43 44 43 42 47 48 44 48 43 45 42 45 47 44 45 43 45 48 46 47 45 16 45 7 47 44 44 43 46 45 43 44 45 46 44 46 48 45 44 47
split_gain=4617.3 620.444 509.299 468.121 435.748 346.231 236.44 181.018 130.24 116.557 106.306 104.522 97.5908 71.515 65.2022 54.8323 51.4769 48.9896 41.9938 41.3355 37.8267 34.9421 32.7321 31.6914 30.9076 30.7634 51.366 48.3478 27.3555 25.5386 25.3474 24.5627 24.3772 24.2931 21.9115 20.8784 24.2504 21.1972 20.0215 18.8779 17.4217 25.7416 21.444 19.3577 17.2808 15.7509 15.5156 18.1897 14.6177 15.0234 13.4385 13.3784 13.1986 12.769 11.7574 11.6553 11.3532 11.202 11.1888 11.045 10.0378 9.54221 9.53271 9.14579 8.94267 8.80127 8.71688 8.23589 7.82323 8.21818 7.3068 7.29948 7.24107 7.17538 11.545 7.11668 7.10192 7.07426 7.05799 6.96313 6.95592 6.87046 6.65314 6.61855 6.60459 6.54991 6.4275 6.2526 6.22626 21.711 10.4261 6.47888
threshold=0 1 36.500000000000007 2 33.500000000000007 3 4 5 6 7 8 2700.5000000000005 9 42.500000000000007 10 11 12 3480.5000000000005 2324.5000000000005 13 14 1545.5000000000002 40.500000000000007 15 12.500000000000002 16 3590.5000000000005 17 38.500000000000007 18 19 44.750000000000007 20 21 46.500000000000007 22 238.50000000000003 46.500000000000007 3740.5000000000005 32.500000000000007 1080.5000000000002 3147.5000000000005 54.500000000000007 23 18.351562500000004 24 42.046875000000007 2100.5000000000005 25 3486.5000000000005 2248.5000000000005 34.500000000000007 3640.5000000000005 241.50000000000003 1811.0000000000002 2023.5000000000002 31.500000000000004 31.500000000000004 217.50000000000003 41.500000000000007 3030.5000000000005 25.500000000000004 2020.5000000000002 13.500000000000002 23.500000000000004 197.50000000000003 48.500000000000007 3345.5000000000005 26.500000000000004 25.500000000000004 20.546875000000004 34.500000000000007 41.500000000000007 26 47.500000000000007 27 39.500000000000007 113.50000000000001 111.50000000000001 1545.5000000000002 19.648437500000004 40.500000000000007 3110.5000000000005 102.50000000000001 8.5000000000000018 28.250000000000004 270.50000000000006 23.250000000000004 26.500000000000004 26.500000000000004 109.50000000000001 26.500000000000004
decision_type=9 9 2 9 2 9 9 9 1 9 9 10 9 2 9 9 9 10 8 9 1 8 2 9 10 9 10 9 2 9 9 10 9 9 10 9 8 8 8 10 10 10 10 9 10 9 10 10 9 8 10 8 10 10 10 2 2 10 10 10 8 8 2 8 2 10 10 8 8 10 10 2 10 9 8 9 2 10 8 10 10 10 10 8 10 10 10 8 10 10 8 2
left_child=3 2 11 4 12 -3 -5 8 30 10 20 21 32 15 17 67 23 24 39 29 22 57 60 -14 65 26 83 -27 -26 -13 72 -29 35 50 45 37 44 38 54 53 85 42 46 -43 -37 48 47 -42 -25 86 64 59 61 -17 -1 66 82 -2 78 62 -4 -21 -24 -35 -23 -12 -30 73 69 -52 -66 -65 79 74 -10 -45 -19 -71 -11 -6 -32 -72 -31 -20 -62 -18 88 -41 91 90 -90 -50
right_child=1 5 9 6 7 -7 -8 -9 13 58 14 19 16 -15 -16 18 40 76 25 52 -22 33 51 34 28 27 -28 31 55 56 80 -33 -34 63 -36 36 -38 -39 -40 87 41 43 -44 75 -46 -47 -48 -49 49 -51 68 -53 -54 -55 -56 -57 -58 -59 -60 -61 84 -63 -64 71 70 -67 -68 -69 -70 77 81 -73 -74 -75 -76 -77 -78 -79 -80 -81 -82 -83 -84 -85 -86 -87 -88 -89 89 -91 -92 -93
leaf_value=-0.0019420955183842639 0.0058979464723485885 0.22405764504403186 0.015956103579238171 0.22582565693454962 -0.0056678520721757334 -0.016087567324054426 -0.0056612629759376807 0.17155720170640695 0.069937533883614983 -0.00011273293877500952 0.080841880453780615 -0.023352842610316161 -0.0042187299385878551 0.12835302076921104 -0.0031087858989900644 0.064536158823054218 0.019336514209064404 -0.006609747225113022 0.0014700121561541867 0.022749144299928817 -0.013141103305216693 -0.0078002207183453919 0.028471909827923986 -0.00065684169550878568 0.013053799631759875 0.018487400492856985 0.026184546119645626 0.12267064396925872 0.050867542583246154 -0.014063643977104585 0 0.0030697247592692367 -0.0044789734632707601 0 -0.0062144613157286326 -0.0031472791662496258 0.0057365456170380405 0.01242345338109801 0 0.034356799480164776 0.031990341234612064 -0.002731105882533552 -0.0076232660879816481 0.042803550744069753 0.095098817076659639 0.065472842662080546 0 0.069957604529467407 0.024943418780776425 0.0046078587954317485 -0.0088081372644869815 0 -0.016270341958675875 0.002826051658697688 0.061873871436829715 0.0057293228613934481 -0.010768947403587173 0.06156065787110912 0.0029305211354174409 0.058382683818817692 0.013236476860678767 -0.0011121027807715473 -0.012884473688888438 -0.017916554282346103 -0.0025395496690640428 0.018927536714070308 0.0018246169228610786 0.0052083596691114729 -0.0078315006331364494 -0.012525640431486558 0.040656935657245333 0.0018162567354369659 -7.394465107268121e-05 0.026395106009223596 -0.0010779802908167876 -0.0051077392720732589 0.0164280318080058 0.016857707308352652 0.093643340095479796 0.025843590755579966 0.062289464370104825 -0.0015988794516773183 -0.021165334166994097 0.082854739218947995 -0.0091161371542006816 -0.010731146336372047 -0.0061498588824444962 0.00038309517020021391 -0.0046191544426529667 0.015812884600154023 0.057261568952422071 -0.0010057339237545507
leaf_weight=1.8322425142978307 7.1887742579565366 9.5874592086765915 18.699136139650363 15.356850352836773 4.0986672517610705 6.6538615352183124 4.0865604038699539 12.985088199377058 11.52656825899612 0.42381726938765218 17.545648507832087 1942.0200821702019 54.480616764107253 28.97262545034755 63.827315058879321 54.979851226089522 8.697822805028407 22.63424062228296 1.2938726097927418 18.987712879985338 143.54518810595619 4.97987401482533 5.5835642449092173 28.366766917984933 47.124636753287632 6.4912910737330094 22.729101896926295 53.014815107861068 53.294512717839098 243.61953454461764 1.2978922014590377 1.903831573203205 3.6784329313086337 38.249699601816246 18.327999092929531 1.0092058457666997 3.9086543706944203 15.100636174145619 4.9814227930619372 4.6392345490166891 32.447367066633888 18.581409348582383 3.5395871329237698 13.200202567211816 32.41520984377712 4.6593755034264168 4.1107901224750085 42.9872697875835 29.266295375244226 23.14684842992574 16.982722871820442 7.3648911340860641 20.616451616253471 3.773224282776936 61.178885684988927 8.0775886678602529 262.10865304194158 3.7910130936652422 1.9356145027268201 11.353831786836961 8.5659879893064481 30.751968346885405 4.400267488672398 138.30161580035929 4.1700339663366348 6.400305945222498 4.0485729676438487 7.4139755318756206 64.039706420648145 4.2048828657716504 14.165484758472305 15.332032456295563 11.419340678141451 26.796754670678638 1.6312686201999902 1.4679012360284094 14.003410482720936 37.780040200654184 11.713980523229111 63.91659642016748 16.344985748524778 2.8109478603291782 361.79411305612302 99.537203995278105 62.669782183365896 6.5219335175352162 1.7443789281533089 10.379615517973434 1.3467616582638573 27.154418038902804 31.950217726756819 8.8652786967577395
leaf_count=2033 12372 1944 30053 2010 3659 13168 3448 1196 5758 654 22039 4496006 78072 7989 95486 38070 13490 43756 656 35344 283317 8869 8243 46746 74997 2710 14416 22230 62714 538715 726 1144 4796 77066 28675 1037 4624 15129 7369 3752 48271 25319 5618 15924 29236 851 6152 46972 35908 36693 33808 12058 41041 2966 55611 9760 573241 6012 3015 16180 16925 57469 6449 287101 7079 9396 6061 4599 125058 8322 22583 25752 7402 18774 1049 2215 22586 70105 16992 32812 8208 4953 839683 44820 126475 10836 2727 8447 1604 31775 35958 10635
internal_value=0.000486791 -0.0138311 -0.0146864 0.057011 0.0534449 0.143051 0.184806 0.0740131 0.0693075 0.0118369 0.00908842 -0.0189125 0.0340319 0.0779598 0.0223571 0.0738614 0.0235543 0.0313215 0.0794464 -0.02072 -0.00373409 -0.00401588 0.00775239 0.0153861 0.0407945 0.0880477 0.0731356 0.110794 0.0319313 -0.0212647 0.0268676 0.11927 0.0562985 -0.00589273 0.0205993 0.0628487 0.0846661 0.0490456 0.0557354 0.0538878 0.0384519 0.0421593 0.0507011 0.0169887 0.0918041 0.0251775 0.0537056 0.0565077 0.0220068 0.0252243 0.00287904 0.0327834 0.000845733 0.0612427 0.0598401 0.0436381 -0.0160284 0.0382284 0.082753 0.0425294 -0.000480521 0.0089201 0.0111091 -0.012204 0.020131 0.0703426 0.04798 0.0388614 -0.00105269 0.00615935 0.0273776 -0.0158781 0.0201935 0.0436787 0.0624528 0.0373286 0.0027511 0.0127319 0.0905298 0.023549 0.0582515 0.0342552 -0.0184523 0.0820289 -0.00564433 0.00635614 0.0318711 0.0169997 0.0328972 0.0394375 0.0541976 0.0191711
